<?xml version="1.0"?>
<opencv_storage>
<cascade>
  <stageType>BOOST</stageType>
  <featureType>LBP</featureType>
  <height>24</height>
  <width>36</width>
  <stageParams>
    <boostType>GAB</boostType>
    <minHitRate>9.9000000953674316e-001</minHitRate>
    <maxFalseAlarm>5.0000000000000000e-001</maxFalseAlarm>
    <weightTrimRate>9.4999999999999996e-001</weightTrimRate>
    <maxDepth>1</maxDepth>
    <maxWeakCount>100</maxWeakCount></stageParams>
  <featureParams>
    <maxCatCount>256</maxCatCount>
    <featSize>1</featSize></featureParams>
  <stageNum>5</stageNum>
  <stages>
    <!-- stage 0 -->
    <_>
      <maxWeakCount>2</maxWeakCount>
      <stageThreshold>-2.1730743348598480e-001</stageThreshold>
      <weakClassifiers>
        <_>
          <internalNodes>
            0 -1 9 -308807809 -304613409 -268567553 -668906 -1112702985
            -306467399 -20515920 -86192412</internalNodes>
          <leafValues>
            -9.5994275808334351e-001 7.3333334922790527e-001</leafValues></_>
        <_>
          <internalNodes>
            0 -1 10 -402657409 -551620801 -152045703 -285675661
            -882394241 -1146830849 -67245995 -268567852</internalNodes>
          <leafValues>
            -9.5064079761505127e-001 7.5855201482772827e-001</leafValues></_></weakClassifiers></_>
    <!-- stage 1 -->
    <_>
      <maxWeakCount>2</maxWeakCount>
      <stageThreshold>-4.0333253145217896e-001</stageThreshold>
      <weakClassifiers>
        <_>
          <internalNodes>
            0 -1 5 286283261 -786849327 290525471 -6355887 -2013156453
            -81231734 -1979149889 -607160181</internalNodes>
          <leafValues>
            -9.3991416692733765e-001 6.1666667461395264e-001</leafValues></_>
        <_>
          <internalNodes>
            0 -1 3 -738098898 -45018863 -1861140001 -44986341
            -1710749509 -83326966 428352923 -6743925</internalNodes>
          <leafValues>
            -9.7305119037628174e-001 5.3658163547515869e-001</leafValues></_></weakClassifiers></_>
    <!-- stage 2 -->
    <_>
      <maxWeakCount>2</maxWeakCount>
      <stageThreshold>-3.2350996136665344e-001</stageThreshold>
      <weakClassifiers>
        <_>
          <internalNodes>
            0 -1 4 -215744529 1883624235 -595492796 -1471560813
            -1056511329 839401482 -400306289 -4199489</internalNodes>
          <leafValues>
            -9.3696272373199463e-001 5.8677685260772705e-001</leafValues></_>
        <_>
          <internalNodes>
            0 -1 0 -590352449 1210368850 1765900842 -297278194
            -2046715495 268476578 -435560309 -34604049</internalNodes>
          <leafValues>
            -9.1028684377670288e-001 6.7432284355163574e-001</leafValues></_></weakClassifiers></_>
    <!-- stage 3 -->
    <_>
      <maxWeakCount>2</maxWeakCount>
      <stageThreshold>-4.6603733301162720e-001</stageThreshold>
      <weakClassifiers>
        <_>
          <internalNodes>
            0 -1 8 -548143649 -539295553 -1996406279 -283803425
            -2004092161 -913079670 -1148601377 -270161535</internalNodes>
          <leafValues>
            -9.7054493427276611e-001 4.7540983557701111e-001</leafValues></_>
        <_>
          <internalNodes>
            0 -1 6 469767165 -1625960191 -1518248449 -6717027
            -1645586181 -125091629 -2088200005 -273977123</internalNodes>
          <leafValues>
            -9.4144713878631592e-001 6.3598334789276123e-001</leafValues></_></weakClassifiers></_>
    <!-- stage 4 -->
    <_>
      <maxWeakCount>3</maxWeakCount>
      <stageThreshold>-1.2143892049789429e+000</stageThreshold>
      <weakClassifiers>
        <_>
          <internalNodes>
            0 -1 7 -139468801 -137939493 -2057481705 -19986317
            -668750209 -829800109 -370419201 -37749781</internalNodes>
          <leafValues>
            -9.1135734319686890e-001 7.2151899337768555e-001</leafValues></_>
        <_>
          <internalNodes>
            0 -1 1 -546832385 -652907385 1493778751 -315634586
            -788301829 -31260021 -1469591417 -524561</internalNodes>
          <leafValues>
            -9.2118167877197266e-001 6.2582296133041382e-001</leafValues></_>
        <_>
          <internalNodes>
            0 -1 2 1196425215 -162270761 1125207519 -274865532
            2122702327 -74249717 -627951381 -271582497</internalNodes>
          <leafValues>
            -9.2885482311248779e-001 6.3522744178771973e-001</leafValues></_></weakClassifiers></_></stages>
  <features>
    <_>
      <rect>
        0 4 3 6</rect></_>
    <_>
      <rect>
        0 6 7 6</rect></_>
    <_>
      <rect>
        0 13 6 3</rect></_>
    <_>
      <rect>
        0 17 11 2</rect></_>
    <_>
      <rect>
        3 8 4 5</rect></_>
    <_>
      <rect>
        7 0 8 2</rect></_>
    <_>
      <rect>
        7 1 8 1</rect></_>
    <_>
      <rect>
        14 9 1 1</rect></_>
    <_>
      <rect>
        16 5 5 3</rect></_>
    <_>
      <rect>
        18 9 1 1</rect></_>
    <_>
      <rect>
        23 8 1 1</rect></_></features></cascade>
</opencv_storage>
