svm_type c_svc
kernel_type rbf
gamma 0.0078125
nr_class 2
total_sv 213
rho -0.2493
label 1 -1
probA -3.66378
probB 0.130235
nr_sv 122 91
SV
23.13073044477875 1:0.0884824 2:0.114599 3:0.0946762 4:0.104456 5:0.0413175 6:0.0418383 7:0.0191527 8:0.02637 9:0.042324 10:0.271979 11:0.271979 12:0.201447 13:0.122394 14:0.0503039 15:0.0500286 16:0.0184556 17:0.0425859 18:0.209855 19:0.0906474 20:0.1012 21:0.117958 22:0.145487 23:0.117069 24:0.175489 25:0.0846508 26:0.0866374 27:0.0535378 28:0.271979 29:0.271979 30:0.271979 31:0.269008 32:0.19561 33:0.271979 34:0.229617 35:0.215886 36:0.271979 37:0.262673 38:0.173737 39:0.129406 40:0.0826726 41:0.0333282 42:0.0338616 43:0.0119926 44:0.0240774 45:0.114258 46:0.294505 47:0.203139 48:0.148794 49:0.103859 50:0.0207193 51:0.0252046 52:0.010333 53:0.0536137 54:0.294505 55:0.221384 56:0.172973 57:0.182463 58:0.176103 59:0.130572 60:0.230398 61:0.145059 62:0.125934 63:0.233244 64:0.294505 65:0.203454 66:0.136103 67:0.102257 68:0.0461639 69:0.116557 70:0.0956121 71:0.182167 72:0.294505 73:0.272236 74:0.16605 75:0.114135 76:0.0758167 77:0.0173157 78:0.0206873 79:0.0089911 80:0.041466 81:0.272236 82:0.272236 83:0.248758 84:0.272236 85:0.242363 86:0.0283193 87:0.0214518 88:0.0048163 89:0.0334403 90:0.243553 91:0.272236 92:0.172064 93:0.115067 94:0.0858497 95:0.0407164 96:0.0980228 97:0.083128 98:0.150147 99:0.272236 100:0.247401 101:0.127895 102:0.147297 103:0.138253 104:0.0730004 105:0.129937 106:0.0748098 107:0.100774 108:0.272236 109:0.289977 110:0.271316 111:0.289977 112:0.258077 113:0.0304533 114:0.0257659 115:0.00619049 116:0.0416789 117:0.289977 118:0.289977 119:0.191802 120:0.204837 121:0.161118 122:0.0285644 123:0.0143476 124:0.00412566 125:0.0189919 126:0.256827 127:0.289977 128:0.152812 129:0.160688 130:0.143974 131:0.0735974 132:0.140315 133:0.0827091 134:0.125554 135:0.289977 136:0.092842 137:0.0655583 138:0.104041 139:0.118375 140:0.0784182 141:0.08415 142:0.0578343 143:0.0375677 144:0.0598516 145:0.406371 146:0.276971 147:0.288935 148:0.229758 149:0.0406678 150:0.0201222 151:0.0052604 152:0.0236625 153:0.299861 154:0.406371 155:0.0466238 156:0.0357977 157:0.049601 158:0.0130381 159:0.0109149 160:0.0121124 161:0.0581453 162:0.406371 163:0.124409 164:0.0933821 165:0.143132 166:0.166052 167:0.113299 168:0.120921 169:0.0765392 170:0.0539999 171:0.0823734 172:0.167 173:0.0421729 174:0.0393818 175:0.0494648 176:0.0166997 177:0.0190394 178:0.0341585 179:0.0523685 180:0.178202 181:0.44892 182:0.05312 183:0.0390953 184:0.0501487 185:0.0140991 186:0.0113401 187:0.0110897 188:0.0512587 189:0.44892 190:0.44892 191:0.0331893 192:0.0108687 193:0.0152709 194:0.0177167 195:0.00369785 196:0.0207098 197:0.0569025 198:0.44892 199:0.149771 200:0.0406203 201:0.0397983 202:0.050495 203:0.0206066 204:0.0199953 205:0.0348441 206:0.0462383 207:0.155214 208:0.213972 209:0.0557856 210:0.0225795 211:0.0194771 212:0.0175467 213:0.0136791 214:0.0154915 215:0.0508158 216:0.25382 217:0.398324 218:0.0262848 219:0.00940697 220:0.0140477 221:0.0122212 222:0.00269798 223:0.013959 224:0.0427378 225:0.398324 226:0.398324 227:0.0182055 228:0.0086727 229:0.00491994 230:0.0303838 231:0.143623 232:0.197413 233:0.261854 234:0.398324 235:0.170948 236:0.0432948 237:0.0180334 238:0.0164843 239:0.0122494 240:0.00967437 241:0.0121019 242:0.0412471 243:0.200741 244:0.219819 245:0.0588551 246:0.037852 247:0.0254827 248:0.0280166 249:0.0690946 250:0.0639737 251:0.089384 252:0.288281 253:0.325524 254:0.01325 255:0.00584282 256:0.00308127 257:0.0192811 258:0.0845334 259:0.115905 260:0.155314 261:0.325524 262:0.325524 263:0.0124451 264:0.0042816 265:0.00698549 266:0.0154601 267:0.201101 268:0.303096 269:0.305743 270:0.325524 271:0.142014 272:0.0387673 273:0.024555 274:0.0160318 275:0.0181614 276:0.0421391 277:0.0378811 278:0.0549628 279:0.183018 280:0.325524 281:0.077371 282:0.0263953 283:0.0165149 284:0.0140374 285:0.0651189 286:0.0809245 287:0.0942442 288:0.325524 289:0.279659 290:0.00862174 291:0.00286637 292:0.00477788 293:0.0118808 294:0.148313 295:0.21819 296:0.226582 297:0.336468 298:0.336468 299:0.0116106 300:0.00509442 301:0.00976743 302:0.0149802 303:0.0537479 304:0.0992122 305:0.0843007 306:0.336468 307:0.279461 308:0.0540091 309:0.02059 310:0.0131354 311:0.0108643 312:0.0498293 313:0.0587987 314:0.0687842 315:0.336468 316:0.336468 317:0.0529378 318:0.00454864 319:0.00246496 320:0.002066 321:0.0107354 322:0.0240292 323:0.0415682 324:0.336468 325:0.348931 326:0.00945524 327:0.00360736 328:0.00710861 329:0.0107319 330:0.0495503 331:0.0853516 332:0.0763938 333:0.348931 334:0.348931 335:0.00760881 336:0.00406487 337:0.00950817 338:0.0151601 339:0.00347701 340:0.0162909 341:0.0202071 342:0.348931 343:0.348931 344:0.0439954 345:0.00427995 346:0.00232721 347:0.00176227 348:0.0104648 349:0.0211245 350:0.0336984 351:0.348931 352:0.348931 353:0.0326418 354:0.000244958 355:0.000489513 356:0.000680856 357:0.000142444 358:0.00323277 359:0.0289132 360:0.348931 361:0.35098 362:0.00650942 363:0.00348492 364:0.00838823 365:0.0132852 366:0.00327342 367:0.0149027 368:0.0167281 369:0.35098 370:0.35098 371:0.00776117 372:0.00762116 373:0.00765679 374:0.00874908 375:0.0026248 376:0.010203 377:0.0461162 378:0.35098 379:0.35098 380:0.0285008 381:0.000303623 382:0.000451238 383:0.000585821 384:0.00011108 385:0.00287696 386:0.02386 387:0.35098 388:0.35098 389:0.0343498 390:0.0141638 391:0.0101405 392:0.0105807 393:0.0185681 394:0.0152578 395:0.0642685 396:0.35098 397:0.31388 398:0.00715163 399:0.00606518 400:0.00642829 401:0.00709741 402:0.00232087 403:0.0073229 404:0.0328759 405:0.31388 406:0.308498 407:0.0108743 408:0.0143265 409:0.0386594 410:0.0544923 411:0.0267972 412:0.105717 413:0.183979 414:0.31388 415:0.31388 416:0.0292316 417:0.00857248 418:0.00535979 419:0.00524302 420:0.0108384 421:0.0103394 422:0.0499569 423:0.31388 424:0.31388 425:0.0829055 426:0.0805892 427:0.170386 428:0.179443 429:0.19579 430:0.129206 431:0.163915 432:0.31388 433:0.285248 434:0.00917638 435:0.0139916 436:0.0350404 437:0.0483087 438:0.0235004 439:0.0945422 440:0.170543 441:0.285248 442:0.0865638 443:0.0324635 444:0.0161626 445:0.0719168 446:0.259303 447:0.0793932 448:0.173259 449:0.150532 450:0.201954 451:0.285248 452:0.0786966 453:0.0732512 454:0.152375 455:0.158219 456:0.175517 457:0.117152 458:0.157241 459:0.285248 460:0.0813774 461:0.0691863 462:0.0824699 463:0.285248 464:0.285248 465:0.285248 466:0.184663 467:0.108897 468:0.104634 469:0.0750821 470:0.0883489 471:0.107983 472:0.128261 473:0.0925992 474:0.133581 475:0.0639831 476:0.0674814 477:0.0420987 478:0.270079 479:0.270079 480:0.26632 481:0.230622 482:0.156138 483:0.258784 484:0.168453 485:0.164605 486:0.270079 487:0.12543 488:0.0844495 489:0.099417 490:0.0756093 491:0.0737129 492:0.104039 493:0.0712077 494:0.0966257 495:0.12565 496:0.264498 497:0.0695187 498:0.062345 499:0.113958 500:0.1086 501:0.220131 502:0.215475 503:0.270079 504:0.270079 505:0.202878 506:0.167543 507:0.17359 508:0.155999 509:0.107202 510:0.177474 511:0.10975 512:0.0985651 513:0.193214 514:0.29683 515:0.189771 516:0.127475 517:0.0917531 518:0.0384557 519:0.0882346 520:0.0674626 521:0.149962 522:0.29683 523:0.159615 524:0.0463272 525:0.0414497 526:0.0753943 527:0.0748469 528:0.149703 529:0.139173 530:0.174253 531:0.29683 532:0.29683 533:0.0487307 534:0.0240433 535:0.0414595 536:0.0475803 537:0.158119 538:0.206613 539:0.215244 540:0.29683 541:0.276659 542:0.16302 543:0.108816 544:0.0769897 545:0.0342843 546:0.0751114 547:0.0599726 548:0.123966 549:0.276659 550:0.222129 551:0.12315 552:0.145093 553:0.134941 554:0.0611213 555:0.0969079 556:0.0486882 557:0.0834983 558:0.270642 559:0.276659 560:0.0395827 561:0.0208995 562:0.0384696 563:0.0383666 564:0.122259 565:0.163017 566:0.177461 567:0.276659 568:0.213849 569:0.0315856 570:0.0110208 571:0.0146488 572:0.0802931 573:0.276659 574:0.276659 575:0.24569 576:0.276659 577:0.288633 578:0.152421 579:0.164884 580:0.146942 581:0.0645666 582:0.109631 583:0.0562864 584:0.109512 585:0.288633 586:0.1152 587:0.068937 588:0.10762 589:0.118281 590:0.0689233 591:0.067241 592:0.0419146 593:0.0292789 594:0.0579053 595:0.273714 596:0.0401244 597:0.0141416 598:0.0177749 599:0.0866322 600:0.288633 601:0.288633 602:0.283895 603:0.288633 604:0.225591 605:0.03171 606:0.0106856 607:0.0202068 608:0.077706 609:0.168807 610:0.214893 611:0.191798 612:0.288633 613:0.157574 614:0.103001 615:0.154429 616:0.173721 617:0.103929 618:0.100702 619:0.056826 620:0.0439732 621:0.0820869 622:0.205809 623:0.0387077 624:0.0390049 625:0.0475749 626:0.0154062 627:0.0175666 628:0.0297057 629:0.0480789 630:0.198574 631:0.279282 632:0.0413376 633:0.014356 634:0.0278422 635:0.117713 636:0.254835 637:0.311585 638:0.288911 639:0.377108 640:0.377108 641:0.0594966 642:0.0261812 643:0.0308152 644:0.0158639 645:0.0223764 646:0.0744208 647:0.0705157 648:0.377108 649:0.202219 650:0.0410139 651:0.0430692 652:0.0529339 653:0.0206897 654:0.020041 655:0.0325074 656:0.0455567 657:0.186657 658:0.262702 659:0.0538434 660:0.0218338 661:0.0181033 662:0.0167273 663:0.0128525 664:0.0161092 665:0.0521439 666:0.319768 667:0.417219 668:0.0609663 669:0.0262449 670:0.0314021 671:0.0212647 672:0.0248954 673:0.0851199 674:0.0786003 675:0.417219 676:0.417219 677:0.0929373 678:0.0347755 679:0.0425141 680:0.0264272 681:0.0176284 682:0.0156071 683:0.0482383 684:0.417219 685:0.197446 686:0.0390558 687:0.01645 688:0.0148512 689:0.0109216 690:0.00843458 691:0.0115503 692:0.0390884 693:0.235227 694:0.224408 695:0.0489095 696:0.0279253 697:0.0159369 698:0.0236957 699:0.0717178 700:0.0711079 701:0.102069 702:0.330978 703:0.347004 704:0.0613088 705:0.021158 706:0.0275968 707:0.0171988 708:0.0128899 709:0.0136925 710:0.03909 711:0.347004 712:0.347004 713:0.342354 714:0.292893 715:0.135998 716:0.0538671 717:0.0158826 718:0.0116879 719:0.0162755 720:0.347004 721:0.142816 722:0.0316223 723:0.0177698 724:0.00987686 725:0.0149081 726:0.0421304 727:0.0408064 728:0.0603209 729:0.205646 730:0.320172 731:0.0601529 732:0.0161307 733:0.0111731 734:0.0115721 735:0.0689562 736:0.0902805 737:0.103186 738:0.320172 739:0.320172 740:0.200735 741:0.169755 742:0.0811997 743:0.0335436 744:0.00984595 745:0.00692342 746:0.0120283 747:0.307535 748:0.320172 749:0.320172 750:0.317799 751:0.0959351 752:0.0209015 753:0.0124237 754:0.0100938 755:0.00767899 756:0.320172 757:0.241771 758:0.039065 759:0.0117612 760:0.00805443 761:0.00836473 762:0.0488607 763:0.061095 764:0.0708189 765:0.324139 766:0.342345 767:0.0416211 768:0.00307287 769:0.00271651 770:0.0020789 771:0.0113906 772:0.0244603 773:0.037053 774:0.342345 775:0.342345 776:0.245496 777:0.22306 778:0.0708468 779:0.0150415 780:0.00846609 781:0.00661997 782:0.00448563 783:0.316837 784:0.342345 785:0.0985107 786:0.0640813 787:0.0131442 788:0.00772526 789:0.0036144 790:0.0058404 791:0.0197112 792:0.342345 793:0.350096 794:0.0333325 795:0.00267312 796:0.00220547 797:0.0016353 798:0.0106125 799:0.0208333 800:0.0296483 801:0.350096 802:0.350096 803:0.0256317 804:0.000376434 805:0.000940676 806:0.00130837 807:0.000273729 808:0.0025948 809:0.0225468 810:0.350096 811:0.350096 812:0.0847088 813:0.057527 814:0.0122217 815:0.00526366 816:0.00300678 817:0.00443832 818:0.013232 819:0.350096 820:0.350096 821:0.0260259 822:0.00514572 823:0.00893117 824:0.00951672 825:0.00120397 826:0.00399558 827:0.0219504 828:0.350096 829:0.351265 830:0.0223412 831:0.000422197 832:0.000863149 833:0.00112059 834:0.000212479 835:0.00227846 836:0.0183977 837:0.351265 838:0.351265 839:0.0269465 840:0.0113413 841:0.00863299 842:0.00905041 843:0.0137709 844:0.0129019 845:0.0549907 846:0.351265 847:0.351265 848:0.0227018 849:0.00470743 850:0.00685121 851:0.00815661 852:0.000956734 853:0.0033375 854:0.0185533 855:0.351265 856:0.351265 857:0.0442249 858:0.0151183 859:0.0105768 860:0.00660581 861:0.0143721 862:0.00739222 863:0.0234593 864:0.351265 865:0.322432 866:0.0235004 867:0.00701414 868:0.00476118 869:0.00473018 870:0.00823302 871:0.00864294 872:0.0427411 873:0.322432 874:0.276997 875:0.0606792 876:0.0643341 877:0.140714 878:0.149213 879:0.15139 880:0.122367 881:0.154179 882:0.322432 883:0.322432 884:0.0335851 885:0.00943405 886:0.00894857 887:0.00512049 888:0.00867643 889:0.00618836 890:0.021218 891:0.322432 892:0.322432 893:0.214145 894:0.104251 895:0.109149 896:0.0759183 897:0.139414 898:0.0207629 899:0.0240555 900:0.292191 901:0.276268 902:0.0547212 903:0.055291 904:0.118936 905:0.124337 906:0.128052 907:0.104388 908:0.138936 909:0.276268 910:0.0543415 911:0.0461492 912:0.0608332 913:0.240961 914:0.276268 915:0.230576 916:0.169385 917:0.0990285 918:0.0923325 919:0.276268 920:0.186424 921:0.0885845 922:0.0926134 923:0.0626714 924:0.118192 925:0.0189576 926:0.0239599 927:0.276268 928:0.247683 929:0.205997 930:0.144444 931:0.231203 932:0.276268 933:0.199832 934:0.0174925 935:0.00984545 936:0.0395131 937:0.102187 938:0.0725128 939:0.0861723 940:0.0697745 941:0.0717039 942:0.105012 943:0.0696381 944:0.0843471 945:0.0964723 946:0.222616 947:0.0668118 948:0.0676306 949:0.106636 950:0.103019 951:0.221021 952:0.21037 953:0.263631 954:0.353497 955:0.353497 956:0.117464 957:0.119378 958:0.0643787 959:0.0322663 960:0.00572108 961:0.0227569 962:0.0768411 963:0.353497 964:0.353497 965:0.07861 966:0.0347301 967:0.0590351 968:0.029915 969:0.017662 970:0.0333026 971:0.100855 972:0.353497 973:0.135937 974:0.0446692 975:0.0457461 976:0.0724607 977:0.072989 978:0.15406 979:0.139188 980:0.165247 981:0.32177 982:0.327846 983:0.0516273 984:0.0272242 985:0.0381862 986:0.0414452 987:0.141697 988:0.181288 989:0.201948 990:0.327846 991:0.327846 992:0.0552301 993:0.0258361 994:0.0394463 995:0.019405 996:0.0107626 997:0.021526 998:0.0667573 999:0.327846 1000:0.327846 1001:0.0253252 1002:0.00425276 1003:0.0327047 1004:0.0458652 1005:0.069572 1006:0.109467 1007:0.114371 1008:0.327846 1009:0.274893 1010:0.0386411 1011:0.0217811 1012:0.0324717 1013:0.0308793 1014:0.101531 1015:0.132607 1016:0.153881 1017:0.307298 1018:0.187006 1019:0.0302517 1020:0.012087 1021:0.0142746 1022:0.0680458 1023:0.231889 1024:0.247887 1025:0.192613 1026:0.307298 1027:0.307298 1028:0.0206644 1029:0.00370024 1030:0.0258762 1031:0.032497 1032:0.0469763 1033:0.0743458 1034:0.0755419 1035:0.307298 1036:0.169934 1037:0.00878295 1038:0.000738555 1039:0.00952138 1040:0.0429935 1041:0.124129 1042:0.210067 1043:0.307298 1044:0.307298 1045:0.189355 1046:0.0303349 1047:0.0119859 1048:0.0132202 1049:0.0574074 1050:0.206112 1051:0.224278 1052:0.176389 1053:0.310563 1054:0.133009 1055:0.0204497 1056:0.00783758 1057:0.0149625 1058:0.053187 1059:0.107939 1060:0.130641 1061:0.112536 1062:0.322718 1063:0.16713 1064:0.00822491 1065:0.000571353 1066:0.0101923 1067:0.0386801 1068:0.113301 1069:0.188492 1070:0.290477 1071:0.322718 1072:0.275337 1073:0.0231457 1074:0.0128646 1075:0.00605577 1076:0.0383278 1077:0.0477083 1078:0.119206 1079:0.322718 1080:0.322718 1081:0.124613 1082:0.020342 1083:0.00808961 1084:0.0156841 1085:0.0605418 1086:0.122364 1087:0.141789 1088:0.127689 1089:0.35199 1090:0.276127 1091:0.0271714 1092:0.011215 1093:0.0139554 1094:0.00794142 1095:0.0110464 1096:0.0354992 1097:0.0337695 1098:0.35199 1099:0.25275 1100:0.0213441 1101:0.0108793 1102:0.00575517 1103:0.0399558 1104:0.0547546 1105:0.128514 1106:0.35199 1107:0.35199 1108:0.35199 1109:0.0529483 1110:0.0450323 1111:0.0329659 1112:0.0310645 1113:0.00985322 1114:0.0309461 1115:0.0915069 1116:0.35199 1117:0.250191 1118:0.0256842 1119:0.0104732 1120:0.013345 1121:0.00999331 1122:0.0113879 1123:0.0374564 1124:0.0340119 1125:0.361348 1126:0.331614 1127:0.0404623 1128:0.0143512 1129:0.0168832 1130:0.0111568 1131:0.00785455 1132:0.00676844 1133:0.0229417 1134:0.361348 1135:0.361348 1136:0.0479899 1137:0.039707 1138:0.0271493 1139:0.029128 1140:0.00900057 1141:0.032846 1142:0.103213 1143:0.361348 1144:0.361348 1145:0.0928305 1146:0.0476607 1147:0.0554881 1148:0.0456097 1149:0.0136883 1150:0.00535478 1151:0.0150049 1152:0.361348 1153:0.266779 1154:0.0293851 1155:0.0095333 1156:0.0119681 1157:0.00800293 1158:0.00626235 1159:0.00651276 1160:0.0204378 1161:0.343188 1162:0.348007 1163:0.156993 1164:0.130262 1165:0.0600063 1166:0.0244339 1167:0.00868027 1168:0.00615741 1169:0.0084845 1170:0.205878 1171:0.348007 1172:0.0671422 1173:0.0373233 1174:0.0447588 1175:0.036029 1176:0.0117842 1177:0.00498551 1178:0.0127925 1179:0.348007 1180:0.348007 1181:0.271019 1182:0.152633 1183:0.0626787 1184:0.0415122 1185:0.00333562 1186:0.00155961 1187:0.00651078 1188:0.348007 1189:0.285764 1190:0.112773 1191:0.092326 1192:0.043795 1193:0.0186184 1194:0.00655617 1195:0.00439413 1196:0.007625 1197:0.175693 1198:0.319741 1199:0.198821 1200:0.171318 1201:0.0516011 1202:0.0119307 1203:0.00833403 1204:0.00690741 1205:0.00490903 1206:0.314 1207:0.319741 1208:0.199544 1209:0.110245 1210:0.0488304 1211:0.0338696 1212:0.00284384 1213:0.00135897 1214:0.00598198 1215:0.319741 1216:0.319741 1217:0.28175 1218:0.20331 1219:0.050519 1220:0.0142216 1221:0.00397539 1222:0.000713294 1223:0.00439322 1224:0.319741 1225:0.330389 1226:0.173858 1227:0.153231 1228:0.0485355 1229:0.0109024 1230:0.00727309 1231:0.00575112 1232:0.0036973 1233:0.243594 1234:0.330389 1235:0.0709483 1236:0.0437893 1237:0.00882966 1238:0.0052787 1239:0.00280973 1240:0.00503768 1241:0.0155802 1242:0.330389 1243:0.330389 1244:0.250114 1245:0.179553 1246:0.0466212 1247:0.0129841 1248:0.00295305 1249:0.000573725 1250:0.0027403 1251:0.330389 1252:0.330389 1253:0.0831702 1254:0.066883 1255:0.0170395 1256:0.0205937 1257:0.00487166 1258:0.00197564 1259:0.0190287 1260:0.330389 1261:0.348873 1262:0.0688876 1263:0.0445672 1264:0.00939629 1265:0.00411802 1266:0.0026748 1267:0.0043693 1268:0.0118595 1269:0.348873 1270:0.348873 1271:0.0241061 1272:0.00376413 1273:0.0060002 1274:0.00714532 1275:0.000595654 1276:0.00343945 1277:0.0205455 1278:0.348873 1279:0.348873 1280:0.0832822 1281:0.0656789 1282:0.0152145 1283:0.0155396 1284:0.00428197 1285:0.00138355 1286:0.0144685 1287:0.348873 1288:0.348873 1289:0.0181168 1290:0.0141399 1291:0.0319381 1292:0.0299132 1293:0.00605012 1294:0.00568654 1295:0.0152247 1296:0.348873 1297:0.351615 1298:0.0208711 1299:0.00345125 1300:0.00458749 1301:0.00609057 1302:0.000487699 1303:0.0029102 1304:0.0172674 1305:0.351615 1306:0.351615 1307:0.0383572 1308:0.0131766 1309:0.00832078 1310:0.00591508 1311:0.01398 1312:0.00736783 1313:0.0239452 1314:0.351615 1315:0.351615 1316:0.0156119 1317:0.0126954 1318:0.0243608 1319:0.0257448 1320:0.00467123 1321:0.00429132 1322:0.0132252 1323:0.351615 1324:0.351615 1325:0.0343654 1326:0.0154016 1327:0.0241523 1328:0.0098136 1329:0.00514379 1330:0.00394042 1331:0.00471575 1332:0.351615 1333:0.345475 1334:0.029918 1335:0.00814596 1336:0.0068399 1337:0.00438682 1338:0.00836005 1339:0.0060533 1340:0.0218137 1341:0.345475 1342:0.345475 1343:0.182727 1344:0.0943653 1345:0.103556 1346:0.0773437 1347:0.143836 1348:0.0266329 1349:0.0259753 1350:0.251069 1351:0.345475 1352:0.0281428 1353:0.0131957 1354:0.0247061 1355:0.0108074 1356:0.00521228 1357:0.00414595 1358:0.00456263 1359:0.345475 1360:0.345475 1361:0.105563 1362:0.0401526 1363:0.0184772 1364:0.00712498 1365:0.00838843 1366:0.00263127 1367:0.019327 1368:0.345475 1369:0.316784 1370:0.165843 1371:0.0834235 1372:0.0913783 1373:0.0664981 1374:0.126895 1375:0.0248267 1376:0.0268753 1377:0.285 1378:0.208101 1379:0.180058 1380:0.130432 1381:0.225683 1382:0.306805 1383:0.211586 1384:0.0257329 1385:0.00888631 1386:0.0346282 1387:0.316784 1388:0.0966089 1389:0.037584 1390:0.0181128 1391:0.00646621 1392:0.00773654 1393:0.00261032 1394:0.0171644 1395:0.316784 1396:0.316784 1397:0.132862 1398:0.0894282 1399:0.0534141 1400:0.14888 1401:0.0362245 1402:0.0141542 1403:0.0317043 1404:0.316784 
17.04701969503514 1:0.174618 2:0.0572983 3:0.0656041 4:0.0579609 5:0.0668573 6:0.101859 7:0.24003 8:0.260328 9:0.260328 10:0.184427 11:0.108898 12:0.111203 13:0.0737626 14:0.0838143 15:0.0571765 16:0.101936 17:0.140837 18:0.260328 19:0.124911 20:0.0561896 21:0.144612 22:0.147681 23:0.0590044 24:0.111482 25:0.114778 26:0.113895 27:0.20591 28:0.228562 29:0.208594 30:0.260328 31:0.260328 32:0.19068 33:0.209707 34:0.260328 35:0.151803 36:0.166162 37:0.103352 38:0.0638389 39:0.0658012 40:0.0454568 41:0.0540337 42:0.0398961 43:0.0731696 44:0.0880399 45:0.15772 46:0.322756 47:0.173434 48:0.144693 49:0.0320143 50:0.0315877 51:0.00863868 52:0.0179745 53:0.0983409 54:0.322756 55:0.124046 56:0.120448 57:0.196722 58:0.21228 59:0.112783 60:0.127585 61:0.165022 62:0.0923017 63:0.0857204 64:0.322756 65:0.280467 66:0.257544 67:0.165685 68:0.160865 69:0.117667 70:0.180628 71:0.150964 72:0.322756 73:0.267018 74:0.0985194 75:0.0775824 76:0.0198138 77:0.0203653 78:0.00614784 79:0.0119354 80:0.0593372 81:0.282003 82:0.282003 83:0.223434 84:0.271381 85:0.0351661 86:0.00463532 87:7.04804e-005 88:0.00405834 89:0.0254076 90:0.282003 91:0.282003 92:0.163352 93:0.156364 94:0.105048 95:0.097981 96:0.0735746 97:0.116505 98:0.086859 99:0.282003 100:0.282003 101:0.228363 102:0.241212 103:0.0527076 104:0.0285057 105:0.0172433 106:0.0471849 107:0.0934333 108:0.282003 109:0.285332 110:0.180829 111:0.214567 112:0.0269251 113:0.00447086 114:0.000138152 115:0.00395057 116:0.0241235 117:0.285332 118:0.285332 119:0.257065 120:0.227522 121:0.0573824 122:0.00265304 123:0.00117122 124:0.00165782 125:0.00980112 126:0.285332 127:0.285332 128:0.189157 129:0.192293 130:0.0442599 131:0.0282219 132:0.017629 133:0.0434269 134:0.0791339 135:0.285332 136:0.285332 137:0.205458 138:0.243252 139:0.0928085 140:0.00778855 141:0.0069837 142:0.0356709 143:0.0479206 144:0.16814 145:0.338952 146:0.254225 147:0.239619 148:0.055249 149:0.00262368 150:0.00092405 151:0.00148697 152:0.00986372 153:0.336048 154:0.338952 155:0.100384 156:0.04067 157:0.025903 158:0.00266201 159:0.00414183 160:0.00320532 161:0.00902241 162:0.338952 163:0.282561 164:0.205397 165:0.248763 166:0.0863727 167:0.00686596 168:0.00603463 169:0.0359682 170:0.0506664 171:0.178476 172:0.326331 173:0.0814103 174:0.0686994 175:0.0634368 176:0.0101139 177:0.0132282 178:0.0173596 179:0.0142269 180:0.226893 181:0.391285 182:0.0992369 183:0.0440329 184:0.0259337 185:0.00246966 186:0.00343687 187:0.0024397 188:0.00779719 189:0.391285 190:0.391285 191:0.0227175 192:0.00436961 193:0.0017012 194:0.00140339 195:0.00166088 196:0.00189755 197:0.0170992 198:0.391285 199:0.280248 200:0.0783174 201:0.0688198 202:0.0609415 203:0.00910087 204:0.0111382 205:0.0155293 206:0.013466 207:0.179317 208:0.297786 209:0.0412102 210:0.0147318 211:0.01375 212:0.00553685 213:0.00638329 214:0.00748923 215:0.0192908 216:0.391285 217:0.384522 218:0.0200369 219:0.00396568 220:0.00205278 221:0.00121795 222:0.00152975 223:0.0018137 224:0.0124974 225:0.384522 226:0.384522 227:0.0093027 228:0.00157504 229:0.000147155 230:0.00371516 231:0.00612599 232:0.0179625 233:0.14224 234:0.384522 235:0.249862 236:0.0346566 237:0.0130093 238:0.0133186 239:0.00510686 240:0.00562789 241:0.00685722 242:0.0147558 243:0.332244 244:0.215943 245:0.025632 246:0.00619037 247:0.00425719 248:0.0110668 249:0.0121678 250:0.0234862 251:0.112865 252:0.384522 253:0.343246 254:0.0080699 255:0.00118356 256:0.000132969 257:0.00282366 258:0.00454334 259:0.0106135 260:0.101969 261:0.343246 262:0.343246 263:0.00748951 264:0.00320842 265:0.0012019 266:0.00348547 267:0.015811 268:0.118217 269:0.319998 270:0.343246 271:0.1843 272:0.0223357 273:0.00505649 274:0.00352522 275:0.00840991 276:0.00920642 277:0.0147697 278:0.0818984 279:0.343246 280:0.212879 281:0.0119929 282:0.00382392 283:0.0084465 284:0.0170841 285:0.0201761 286:0.124522 287:0.242936 288:0.343246 289:0.333161 290:0.00616332 291:0.00253302 292:0.00062955 293:0.00320074 294:0.0132129 295:0.0899209 296:0.26185 297:0.333658 298:0.333658 299:0.0117382 300:0.00904069 301:0.00575766 302:0.00168181 303:0.0134492 304:0.0932303 305:0.165719 306:0.333658 307:0.169596 308:0.0107508 309:0.00338338 310:0.00666352 311:0.0144228 312:0.0175537 313:0.0955116 314:0.198619 315:0.333658 316:0.333658 317:0.00389121 318:0.00312797 319:0.00797361 320:0.00569227 321:0.011167 322:0.0874856 323:0.13531 324:0.333658 325:0.298986 326:0.00905966 327:0.00709181 328:0.00431438 329:0.00152214 330:0.0123565 331:0.0868029 332:0.153517 333:0.354666 334:0.354666 335:0.0260927 336:0.00570755 337:0.00343481 338:0.00171351 339:0.00339979 340:0.0161842 341:0.0303628 342:0.354666 343:0.30946 344:0.00329464 345:0.00251322 346:0.00715712 347:0.00562729 348:0.0106337 349:0.0823452 350:0.125385 351:0.354666 352:0.354666 353:0.00525313 354:0.00207186 355:0.00182935 356:0.00010536 357:0.00194193 358:0.0085436 359:0.020249 360:0.354666 361:0.352024 362:0.0198338 363:0.00507715 364:0.00310301 365:0.00139872 366:0.0032307 367:0.0165732 368:0.0278141 369:0.352024 370:0.352024 371:0.0266717 372:0.0067758 373:0.00356498 374:0.00177005 375:0.0017674 376:0.0039121 377:0.0201463 378:0.352024 379:0.352024 380:0.0040017 381:0.00183616 382:0.00185067 383:0.000141619 384:0.0019279 385:0.010145 386:0.0200807 387:0.352024 388:0.352024 389:0.0223312 390:0.00619901 391:0.00409607 392:0.00257689 393:0.0051483 394:0.0098453 395:0.0348498 396:0.352024 397:0.342638 398:0.025261 399:0.00614379 400:0.00310481 401:0.00156846 402:0.00155159 403:0.00415055 404:0.0179646 405:0.342638 406:0.342638 407:0.0244972 408:0.0119898 409:0.0158797 410:0.0161878 411:0.00607404 412:0.0155901 413:0.0785783 414:0.342638 415:0.342638 416:0.0179819 417:0.00444446 418:0.00309027 419:0.00108481 420:0.00346095 421:0.00788745 422:0.026391 423:0.342638 424:0.28284 425:0.0637757 426:0.0637015 427:0.0512436 428:0.0798847 429:0.0646255 430:0.0811124 431:0.238786 432:0.342638 433:0.300863 434:0.0249475 435:0.0126695 436:0.0149109 437:0.0130485 438:0.00526303 439:0.0140973 440:0.0736108 441:0.300863 442:0.300863 443:0.0430643 444:0.00774352 445:0.0673884 446:0.195861 447:0.0556152 448:0.0588677 449:0.121137 450:0.300863 451:0.300863 452:0.0626163 453:0.0588959 454:0.0472219 455:0.0713252 456:0.0597021 457:0.0764178 458:0.225153 459:0.300863 460:0.0537161 461:0.040733 462:0.0940601 463:0.181998 464:0.300863 465:0.134616 466:0.148026 467:0.281177 468:0.223785 469:0.106851 470:0.0470295 471:0.118185 472:0.116768 473:0.0472212 474:0.090537 475:0.103032 476:0.102192 477:0.183821 478:0.204131 479:0.176359 480:0.264534 481:0.264534 482:0.141365 483:0.156669 484:0.215418 485:0.120465 486:0.14004 487:0.0910508 488:0.0640616 489:0.105353 490:0.156034 491:0.0425278 492:0.0826267 493:0.127324 494:0.263005 495:0.264534 496:0.0932982 497:0.106395 498:0.131708 499:0.214361 500:0.139549 501:0.21435 502:0.264534 503:0.264534 504:0.229187 505:0.103676 506:0.0953001 507:0.150442 508:0.152563 509:0.0785801 510:0.0895812 511:0.119597 512:0.0689459 513:0.0680495 514:0.314229 515:0.22431 516:0.201171 517:0.117137 518:0.109827 519:0.0805043 520:0.126816 521:0.102794 522:0.314229 523:0.0507779 524:0.0604081 525:0.0744325 526:0.124382 527:0.0777232 528:0.121101 529:0.24651 530:0.167097 531:0.113502 532:0.225534 533:0.0987109 534:0.0829326 535:0.0887637 536:0.107893 537:0.11538 538:0.314229 539:0.314229 540:0.314229 541:0.289032 542:0.140005 543:0.12997 544:0.079717 545:0.071835 546:0.0540842 547:0.0882074 548:0.0642497 549:0.289032 550:0.289032 551:0.205054 552:0.224994 553:0.0456111 554:0.0209341 555:0.0120844 556:0.027892 557:0.0607784 558:0.289032 559:0.129664 560:0.0635033 561:0.0566763 562:0.0601601 563:0.0702632 564:0.0776873 565:0.212775 566:0.208836 567:0.289032 568:0.185652 569:0.0460338 570:0.0227707 571:0.0179013 572:0.0231393 573:0.025557 574:0.289032 575:0.289032 576:0.289032 577:0.28748 578:0.189569 579:0.20006 580:0.04206 581:0.0231895 582:0.0140289 583:0.0301175 584:0.0576073 585:0.28748 586:0.28748 587:0.210003 588:0.251109 589:0.0929124 590:0.0068047 591:0.00451464 592:0.0214948 593:0.0370304 594:0.157787 595:0.185759 596:0.0453503 597:0.0226678 598:0.0190014 599:0.0253038 600:0.0267522 601:0.262799 602:0.28748 603:0.28748 604:0.0756341 605:0.0291884 606:0.0351581 607:0.0262346 608:0.00681331 609:0.0278363 610:0.275978 611:0.28748 612:0.28748 613:0.302263 614:0.271638 615:0.302263 616:0.112396 617:0.0078 618:0.00492045 619:0.0275837 620:0.0503373 621:0.214133 622:0.302263 623:0.106922 624:0.0870314 625:0.07802 626:0.0114629 627:0.0144722 628:0.0176522 629:0.016238 630:0.302263 631:0.101434 632:0.0388769 633:0.0426851 634:0.0308657 635:0.00819799 636:0.0320376 637:0.302263 638:0.302263 639:0.302263 640:0.186843 641:0.0312095 642:0.0388197 643:0.0343904 644:0.0101514 645:0.039276 646:0.0753637 647:0.206996 648:0.302263 649:0.349467 650:0.129839 651:0.110421 652:0.0946677 653:0.0130076 654:0.0151621 655:0.0191381 656:0.0191468 657:0.306916 658:0.349467 659:0.06238 660:0.0214774 661:0.0189206 662:0.00755061 663:0.00913034 664:0.0109238 665:0.0297836 666:0.349467 667:0.180304 668:0.0319271 669:0.0438792 670:0.0403697 671:0.011217 672:0.0416197 673:0.0990116 674:0.255838 675:0.349467 676:0.349467 677:0.0642617 678:0.018671 679:0.0150658 680:0.00813441 681:0.0234578 682:0.0181563 683:0.0685352 684:0.349467 685:0.342084 686:0.0517364 687:0.0186309 688:0.0182039 689:0.00684476 690:0.00788045 691:0.00984577 692:0.0220975 693:0.342084 694:0.333669 695:0.03694 696:0.00876464 697:0.00567625 698:0.0157911 699:0.0192093 700:0.0396235 701:0.186217 702:0.342084 703:0.342084 704:0.0496611 705:0.0166203 706:0.0139138 707:0.00718205 708:0.0208763 709:0.0146919 710:0.0612242 711:0.342084 712:0.342084 713:0.0949593 714:0.0569465 715:0.02921 716:0.0318366 717:0.00927707 718:0.0212207 719:0.0407418 720:0.342084 721:0.250708 722:0.0281057 723:0.00619867 724:0.00410129 725:0.010462 726:0.0126773 727:0.0216573 728:0.117852 729:0.32929 730:0.256115 731:0.0154506 732:0.0049978 733:0.00988703 734:0.0206023 735:0.0287963 736:0.186392 737:0.32929 738:0.32929 739:0.32929 740:0.0616204 741:0.0362172 742:0.0182141 743:0.0205637 744:0.00648389 745:0.0139788 746:0.0298512 747:0.32929 748:0.32929 749:0.144424 750:0.141571 751:0.0804942 752:0.0380642 753:0.00718363 754:0.0206921 755:0.0332614 756:0.32929 757:0.160432 758:0.010779 759:0.00344251 760:0.00607641 761:0.0136931 762:0.0195212 763:0.111671 764:0.227814 765:0.34663 766:0.34663 767:0.00467817 768:0.00367169 769:0.00769392 770:0.00516383 771:0.0129667 772:0.102632 773:0.156748 774:0.34663 775:0.34663 776:0.0908727 777:0.0894576 778:0.0500751 779:0.0261387 780:0.00516788 781:0.0140261 782:0.0216022 783:0.34663 784:0.34663 785:0.0648689 786:0.0557128 787:0.0391938 788:0.00908538 789:0.000773332 790:0.00496165 791:0.0117087 792:0.34663 793:0.255627 794:0.0033075 795:0.00250034 796:0.00582074 797:0.00438958 798:0.0104923 799:0.0823594 800:0.123738 801:0.359036 802:0.359036 803:0.00633528 804:0.00205533 805:0.00168136 806:9.1483e-005 807:0.00195809 808:0.00858882 809:0.020389 810:0.359036 811:0.359036 812:0.0518318 813:0.0447338 814:0.0313793 815:0.00790932 816:0.000791036 817:0.00400281 818:0.00934238 819:0.359036 820:0.359036 821:0.0062278 822:0.00387123 823:0.00310791 824:0.00142304 825:0.000113679 826:0.000823746 827:0.00127246 828:0.359036 829:0.35234 830:0.00468319 831:0.00177089 832:0.00162208 833:0.000115132 834:0.00188668 835:0.00989599 836:0.0195645 837:0.35234 838:0.35234 839:0.0184593 840:0.00513066 841:0.00328827 842:0.00191013 843:0.00412076 844:0.00768498 845:0.0293511 846:0.35234 847:0.35234 848:0.00588208 849:0.0044889 850:0.00357176 851:0.00114271 852:8.40992e-005 853:0.000694473 854:0.00110595 855:0.35234 856:0.35234 857:0.0208691 858:0.00343181 859:0.00165636 860:0.00239528 861:0.00947119 862:0.0211747 863:0.0208764 864:0.35234 865:0.337511 866:0.015669 867:0.00385864 868:0.0025628 869:0.000820201 870:0.00285626 871:0.00636703 872:0.022825 873:0.337511 874:0.244379 875:0.046222 876:0.0457749 877:0.0393593 878:0.060976 879:0.0505408 880:0.0650582 881:0.20451 882:0.337511 883:0.337511 884:0.0145477 885:0.00219129 886:0.00122011 887:0.00162931 888:0.00635959 889:0.0164383 890:0.0169582 891:0.337511 892:0.337511 893:0.157389 894:0.0993858 895:0.0470284 896:0.0492178 897:0.139234 898:0.111593 899:0.0928544 900:0.337511 901:0.281276 902:0.0461673 903:0.042811 904:0.0364215 905:0.0546061 906:0.0469499 907:0.0617033 908:0.194039 909:0.287501 910:0.0515658 911:0.0284691 912:0.0652619 913:0.149683 914:0.287501 915:0.109016 916:0.121545 917:0.246229 918:0.204091 919:0.287501 920:0.148808 921:0.0907565 922:0.0434626 923:0.0439031 924:0.130509 925:0.106721 926:0.0907684 927:0.287501 928:0.171393 929:0.183217 930:0.187265 931:0.204739 932:0.234167 933:0.253829 934:0.144028 935:0.0892562 936:0.132715 937:0.0640352 938:0.042788 939:0.0735082 940:0.107678 941:0.0335261 942:0.0617213 943:0.0916814 944:0.182656 945:0.237407 946:0.072762 947:0.0782366 948:0.101741 949:0.167554 950:0.112607 951:0.172586 952:0.318728 953:0.211911 954:0.163227 955:0.318728 956:0.0920994 957:0.110697 958:0.224522 959:0.0320918 960:0.0463693 961:0.117676 962:0.243909 963:0.318728 964:0.318728 965:0.071068 966:0.0314404 967:0.0832274 968:0.0342128 969:0.0465779 970:0.131479 971:0.133302 972:0.318728 973:0.0461062 974:0.0520119 975:0.067344 976:0.113492 977:0.0737128 978:0.114233 979:0.218868 980:0.141445 981:0.0944267 982:0.217384 983:0.0897588 984:0.0759325 985:0.0838481 986:0.104236 987:0.111256 988:0.283407 989:0.286651 990:0.331331 991:0.331331 992:0.0512813 993:0.0237061 994:0.0648568 995:0.0240173 996:0.0322634 997:0.0888885 998:0.0949326 999:0.331331 1000:0.331331 1001:0.0356801 1002:0.0191365 1003:0.0276784 1004:0.0232638 1005:0.026914 1006:0.129992 1007:0.172898 1008:0.331331 1009:0.130996 1010:0.0600146 1011:0.0541446 1012:0.0595055 1013:0.0710507 1014:0.0783897 1015:0.19693 1016:0.181312 1017:0.301967 1018:0.187221 1019:0.0493314 1020:0.0271341 1021:0.0186893 1022:0.0231143 1023:0.0235362 1024:0.236162 1025:0.301967 1026:0.301967 1027:0.301967 1028:0.0251141 1029:0.0133269 1030:0.0186813 1031:0.0152854 1032:0.0186174 1033:0.0805608 1034:0.107162 1035:0.301967 1036:0.265513 1037:0.0153975 1038:0.00774313 1039:0.0110485 1040:0.0158983 1041:0.0152021 1042:0.24914 1043:0.301967 1044:0.301967 1045:0.168572 1046:0.0431933 1047:0.0235134 1048:0.0175936 1049:0.0227493 1050:0.0226212 1051:0.194524 1052:0.258321 1053:0.322513 1054:0.0635685 1055:0.0274963 1056:0.0364552 1057:0.0266435 1058:0.00619943 1059:0.0198971 1060:0.200781 1061:0.281519 1062:0.303869 1063:0.244427 1064:0.0137052 1065:0.00676202 1066:0.0102038 1067:0.0139003 1068:0.0131989 1069:0.198387 1070:0.260692 1071:0.322513 1072:0.110795 1073:0.0150766 1074:0.00806958 1075:0.00606049 1076:0.0265706 1077:0.0201788 1078:0.208134 1079:0.322513 1080:0.322513 1081:0.0670898 1082:0.0283665 1083:0.0346934 1084:0.024249 1085:0.00569375 1086:0.0175919 1087:0.209039 1088:0.279646 1089:0.300128 1090:0.101291 1091:0.0208841 1092:0.0264968 1093:0.0255806 1094:0.00704 1095:0.0222599 1096:0.0432587 1097:0.115603 1098:0.330115 1099:0.105216 1100:0.0148371 1101:0.00768047 1102:0.0055148 1103:0.0237843 1104:0.0180254 1105:0.217604 1106:0.354511 1107:0.354511 1108:0.331089 1109:0.0132474 1110:0.0119867 1111:0.00964 1112:0.0405506 1113:0.028088 1114:0.0421324 1115:0.298895 1116:0.354511 1117:0.0892273 1118:0.0195279 1119:0.027563 1120:0.0274435 1121:0.00714845 1122:0.0214933 1123:0.0515677 1124:0.130457 1125:0.32565 1126:0.243804 1127:0.0379549 1128:0.0114071 1129:0.00994566 1130:0.00502295 1131:0.0125559 1132:0.010204 1133:0.0368411 1134:0.3471 1135:0.292338 1136:0.012455 1137:0.0119531 1138:0.00894866 1139:0.0395418 1140:0.0266203 1141:0.0515754 1142:0.336388 1143:0.394147 1144:0.394147 1145:0.0378548 1146:0.01357 1147:0.0113435 1148:0.0367162 1149:0.0152936 1150:0.00844632 1151:0.0578867 1152:0.394147 1153:0.206943 1154:0.0323577 1155:0.0110451 1156:0.0100422 1157:0.00485998 1158:0.0121576 1159:0.00911292 1160:0.0357013 1161:0.310216 1162:0.320895 1163:0.0571365 1164:0.0332115 1165:0.0172574 1166:0.019802 1167:0.00714979 1168:0.0142058 1169:0.026806 1170:0.304389 1171:0.394917 1172:0.0301098 1173:0.0117724 1174:0.0097496 1175:0.0327116 1176:0.0151359 1177:0.00784001 1178:0.0617696 1179:0.394917 1180:0.394917 1181:0.116231 1182:0.0722992 1183:0.0347002 1184:0.044928 1185:0.00119312 1186:0.0122636 1187:0.0166262 1188:0.394917 1189:0.252223 1190:0.0410644 1191:0.0231744 1192:0.0118113 1193:0.014002 1194:0.0054055 1195:0.0100826 1196:0.0211951 1197:0.242956 1198:0.353342 1199:0.0885714 1200:0.087976 1201:0.051334 1202:0.0268615 1203:0.00636312 1204:0.0205762 1205:0.0291901 1206:0.353342 1207:0.353342 1208:0.0809677 1209:0.0510002 1210:0.0234408 1211:0.0345589 1212:0.00100279 1213:0.00879419 1214:0.0147346 1215:0.353342 1216:0.353342 1217:0.204597 1218:0.18911 1219:0.105769 1220:0.0335656 1221:0.000335569 1222:0.0121926 1223:0.00680499 1224:0.353342 1225:0.305167 1226:0.069035 1227:0.0685884 1228:0.0393385 1229:0.0225399 1230:0.00564785 1231:0.0165626 1232:0.0230569 1233:0.276865 1234:0.347466 1235:0.0483228 1236:0.0423502 1237:0.0305825 1238:0.00799968 1239:0.000835066 1240:0.00759 1241:0.0151323 1242:0.347466 1243:0.347466 1244:0.159085 1245:0.146907 1246:0.0794958 1247:0.0289036 1248:0.000296415 1249:0.00980834 1250:0.00506822 1251:0.347466 1252:0.347466 1253:0.116002 1254:0.102218 1255:0.077045 1256:0.013594 1257:4.66734e-005 1258:0.0144961 1259:0.0130795 1260:0.347466 1261:0.348052 1262:0.0418179 1263:0.0368848 1264:0.0266291 1265:0.00751564 1266:0.000930743 1267:0.00670625 1268:0.0130359 1269:0.348052 1270:0.348052 1271:0.00487785 1272:0.00296179 1273:0.00240123 1274:0.000873741 1275:4.5816e-005 1276:0.000677712 1277:0.00151812 1278:0.348052 1279:0.348052 1280:0.0995546 1281:0.0888515 1282:0.0653861 1283:0.0118335 1284:5.07112e-005 1285:0.0103257 1286:0.00948998 1287:0.348052 1288:0.348052 1289:0.0183348 1290:0.012635 1291:0.00954286 1292:0.00792484 1293:0.00068724 1294:0.00983376 1295:0.0101166 1296:0.348052 1297:0.35245 1298:0.0048167 1299:0.00364619 1300:0.00295342 1301:0.000764253 1302:3.52951e-005 1303:0.000693481 1304:0.00154613 1305:0.35245 1306:0.35245 1307:0.0202207 1308:0.0035277 1309:0.0018035 1310:0.00219929 1311:0.00893612 1312:0.0198227 1313:0.0205888 1314:0.35245 1315:0.35245 1316:0.016998 1317:0.0140139 1318:0.0107092 1319:0.00630454 1320:0.000529427 1321:0.00888634 1322:0.00861325 1323:0.35245 1324:0.35245 1325:0.0108775 1326:0.0031177 1327:0.000115453 1328:0.00585955 1329:0.00712732 1330:0.0134244 1331:0.0122525 1332:0.35245 1333:0.337028 1334:0.0139016 1335:0.00207526 1336:0.00127575 1337:0.00128061 1338:0.00576955 1339:0.0149676 1340:0.0161779 1341:0.337028 1342:0.337028 1343:0.137901 1344:0.092385 1345:0.046869 1346:0.0509554 1347:0.129633 1348:0.103176 1349:0.0933706 1350:0.337028 1351:0.337028 1352:0.00804328 1353:0.00338938 1354:0.000249547 1355:0.00590599 1356:0.00552483 1357:0.0111336 1358:0.0107031 1359:0.337028 1360:0.337028 1361:0.104801 1362:0.0371345 1363:0.0133999 1364:0.0246343 1365:0.0563553 1366:0.0409546 1367:0.017753 1368:0.337028 1369:0.300269 1370:0.133415 1371:0.0861964 1372:0.044381 1373:0.0466028 1374:0.123941 1375:0.100733 1376:0.0929067 1377:0.300269 1378:0.147331 1379:0.158929 1380:0.172124 1381:0.196924 1382:0.23227 1383:0.24008 1384:0.136798 1385:0.0940197 1386:0.128092 1387:0.300269 1388:0.10003 1389:0.0344473 1390:0.0110875 1391:0.0197514 1392:0.0537618 1393:0.0402981 1394:0.0192335 1395:0.300269 1396:0.300269 1397:0.170548 1398:0.08673 1399:0.13398 1400:0.203719 1401:0.12742 1402:0.0610952 1403:0.0200855 1404:0.280608 
2.87185844573193 1:0.107689 2:0.12993 3:0.0818844 4:0.0290963 5:0.0272033 6:0.00926093 7:0.0152014 8:0.0241139 9:0.101507 10:0.150687 11:0.111192 12:0.0619048 13:0.109318 14:0.13205 15:0.0230457 16:0.0396621 17:0.168349 18:0.273022 19:0.173797 20:0.281039 21:0.281039 22:0.252575 23:0.19096 24:0.135617 25:0.072643 26:0.0307916 27:0.125433 28:0.273806 29:0.272883 30:0.182086 31:0.130048 32:0.19552 33:0.0738115 34:0.214515 35:0.281039 36:0.281039 37:0.117705 38:0.0877855 39:0.0390463 40:0.0632941 41:0.0800542 42:0.0143446 43:0.0269295 44:0.11016 45:0.195658 46:0.0641302 47:0.132811 48:0.249875 49:0.281808 50:0.281808 51:0.0510942 52:0.0342375 53:0.10172 54:0.0836 55:0.212416 56:0.219202 57:0.142558 58:0.0932395 59:0.118988 60:0.0513647 61:0.143727 62:0.281808 63:0.281808 64:0.0404294 65:0.0340427 66:0.102185 67:0.227415 68:0.281808 69:0.164267 70:0.214898 71:0.281808 72:0.181046 73:0.0559045 74:0.115404 75:0.214864 76:0.285709 77:0.274785 78:0.0471644 79:0.036232 80:0.110341 81:0.091158 82:0.285709 83:0.271168 84:0.264542 85:0.207535 86:0.162493 87:0.0300981 88:0.0163792 89:0.010292 90:0.0533107 91:0.0491164 92:0.0406304 93:0.0955484 94:0.202079 95:0.285709 96:0.147002 97:0.222126 98:0.285709 99:0.191269 100:0.0109719 101:0.0239737 102:0.0824958 103:0.148238 104:0.285709 105:0.106728 106:0.0542288 107:0.0618417 108:0.0235477 109:0.343998 110:0.343998 111:0.343998 112:0.301771 113:0.235471 114:0.0417241 115:0.0215551 116:0.0173357 117:0.0574368 118:0.343998 119:0.134601 120:0.0530567 121:0.00913149 122:0.0236258 123:0.0141282 124:0.0454819 125:0.0277219 126:0.329323 127:0.0120099 128:0.0313776 129:0.11609 130:0.216104 131:0.343998 132:0.15505 133:0.0846425 134:0.100555 135:0.0325449 136:0.0680217 137:0.019541 138:0.0242377 139:0.00895724 140:0.0500614 141:0.0138301 142:0.0476528 143:0.0333801 144:0.0637644 145:0.473575 146:0.197919 147:0.0928687 148:0.0211271 149:0.0351966 150:0.0196962 151:0.0568208 152:0.0311159 153:0.384767 154:0.473575 155:0.035802 156:0.00878367 157:0.000808422 158:0.0126338 159:0.00478051 160:0.0249304 161:0.0351687 162:0.473575 163:0.0803069 164:0.0270713 165:0.0379406 166:0.0198477 167:0.0873455 168:0.025419 169:0.0595194 170:0.0384292 171:0.0698607 172:0.242067 173:0.0263169 174:0.0104268 175:0.00350316 176:0.0294223 177:0.0049708 178:0.0285264 179:0.0340021 180:0.165757 181:0.452462 182:0.0295898 183:0.0075191 184:0.000596309 185:0.0110753 186:0.0051968 187:0.0235025 188:0.0312985 189:0.452462 190:0.452462 191:0.0497562 192:0.00901774 193:0.00241221 194:0.0226562 196:0.0367445 197:0.0904091 198:0.452462 199:0.193689 200:0.0213352 201:0.00869762 202:0.00258401 203:0.024258 204:0.00498952 205:0.0266351 206:0.0309088 207:0.137421 208:0.28965 209:0.0386098 210:0.00850963 211:0.00245942 212:0.032782 213:0.00203748 214:0.00575957 215:0.0119222 216:0.124263 217:0.358109 218:0.0369004 219:0.00646954 220:0.00103713 221:0.0102376 223:0.012284 224:0.0528159 225:0.358109 226:0.358109 227:0.0384477 228:0.0155166 229:0.0135407 230:0.100025 231:0.225908 232:0.327909 233:0.358109 234:0.358109 235:0.213531 236:0.0292062 237:0.00670992 238:0.00186983 239:0.021829 240:0.00120753 241:0.00353985 242:0.00748398 243:0.0954962 244:0.271148 245:0.0186989 246:0.0114539 247:0.00685484 248:0.0485912 249:0.0784985 250:0.031484 251:0.0846037 252:0.182785 253:0.324331 254:0.0281169 255:0.0108156 256:0.00842665 257:0.0640648 258:0.144949 259:0.208499 260:0.249792 261:0.324331 262:0.324331 263:0.0140654 264:0.0113219 265:0.0167326 266:0.0680226 267:0.216458 268:0.22575 269:0.239219 270:0.324331 271:0.189375 272:0.0137807 273:0.00767327 274:0.00433109 275:0.0328644 276:0.0502529 277:0.0207051 278:0.0549712 279:0.119889 280:0.324331 281:0.0140613 282:0.0112994 283:0.00608807 284:0.0213863 285:0.0722856 286:0.0295441 287:0.0943521 288:0.324331 289:0.339549 290:0.0106514 291:0.00838314 292:0.0125932 293:0.0556963 294:0.180098 295:0.190673 296:0.193124 297:0.339549 298:0.339549 299:0.0123213 300:0.00872347 301:0.00892679 302:0.0147586 303:0.0245454 304:0.0168007 305:0.0356554 306:0.339549 307:0.31302 308:0.00990715 309:0.00858838 310:0.00498262 311:0.0179485 312:0.0603282 313:0.0239241 314:0.07449 315:0.289116 316:0.339549 317:0.0122509 318:0.00435331 319:0.000822025 320:0.00493552 321:0.00989361 322:0.00682589 323:0.0211125 324:0.339549 325:0.352151 326:0.00954215 327:0.00712956 328:0.00783 329:0.013008 330:0.0307925 331:0.0209708 332:0.0336083 333:0.352151 334:0.352151 335:0.0119777 336:0.00561069 337:0.00414286 338:0.0104147 339:0.00714721 340:0.00448562 341:0.0135123 342:0.352151 343:0.352151 344:0.0105718 345:0.00386112 346:0.000926215 347:0.00373142 348:0.0118753 349:0.0067231 350:0.0203377 351:0.352151 352:0.352151 353:0.0102317 354:0.00479164 355:1.80939e-005 356:0.0027748 357:0.00203359 358:0.00304208 359:0.00813305 360:0.352151 361:0.352733 362:0.0105464 363:0.00487826 364:0.0036451 365:0.00940477 366:0.00594499 367:0.00405313 368:0.0118434 369:0.352733 370:0.352733 371:0.00790537 372:0.00331968 373:0.00209333 374:0.00777586 375:0.00283126 376:0.00272805 377:0.010856 378:0.352733 379:0.352733 380:0.00851242 381:0.00386522 382:1.87111e-005 383:0.00272855 384:0.00191727 385:0.00288664 386:0.00682232 387:0.352733 388:0.352733 389:0.011727 390:0.00274989 392:0.000584524 393:0.00152445 394:0.00214863 395:0.0103433 396:0.352733 397:0.335476 398:0.0069659 399:0.00301409 400:0.00208505 401:0.00724381 402:0.00286587 403:0.00254826 404:0.00971081 405:0.335476 406:0.335476 407:0.0122794 408:0.00667393 409:0.00577413 410:0.0136457 411:0.0210094 412:0.101849 413:0.164008 414:0.335476 415:0.335476 416:0.00945671 417:0.00257091 419:0.000483938 420:0.00128039 421:0.00180601 422:0.00922775 423:0.335476 424:0.335476 425:0.0565529 426:0.0503457 427:0.0482373 428:0.050102 429:0.088643 430:0.149186 431:0.130655 432:0.335476 433:0.297313 434:0.0100381 435:0.00526081 436:0.00412323 437:0.00940123 438:0.0120286 439:0.076351 440:0.128415 441:0.297313 442:0.110634 443:0.0196214 444:0.0168407 445:0.0271089 446:0.0596273 447:0.0955906 448:0.259138 449:0.245613 450:0.225879 451:0.297313 452:0.0444878 453:0.0342191 454:0.0319516 455:0.0329722 456:0.0567969 457:0.107806 458:0.102257 459:0.297313 460:0.0919549 461:0.0897492 462:0.164359 463:0.204781 464:0.251326 465:0.297313 466:0.297313 467:0.198252 468:0.143645 469:0.129615 470:0.209815 471:0.223314 472:0.158369 473:0.120306 474:0.0827096 475:0.0327894 476:0.0220755 477:0.0966793 478:0.19909 479:0.18964 480:0.118496 481:0.0890131 482:0.140942 483:0.0483346 484:0.131885 485:0.259857 486:0.259857 487:0.049377 488:0.0679264 489:0.121619 490:0.15131 491:0.198879 492:0.239196 493:0.259857 494:0.182279 495:0.0684712 496:0.209659 497:0.215421 498:0.137548 499:0.0692881 500:0.0826072 501:0.0909157 502:0.259857 503:0.259857 504:0.214538 505:0.178358 506:0.175874 507:0.106625 508:0.0719764 509:0.0978985 510:0.0381691 511:0.100698 512:0.240902 513:0.259645 514:0.0330781 515:0.0284234 516:0.0864211 517:0.199533 518:0.259645 519:0.126901 520:0.157565 521:0.259645 522:0.14839 523:0.165148 524:0.171578 525:0.11387 526:0.0612422 527:0.0707388 528:0.0788098 529:0.234124 530:0.259645 531:0.175748 532:0.130091 533:0.194737 534:0.140911 535:0.0573103 536:0.259645 537:0.236286 538:0.217596 539:0.17171 540:0.0932177 541:0.0481309 542:0.0392716 543:0.0950457 544:0.211561 545:0.284511 546:0.135835 547:0.195069 548:0.284511 549:0.188399 550:0.0178192 551:0.034147 552:0.0903516 553:0.156958 554:0.284511 555:0.0961951 556:0.0482913 557:0.0544262 558:0.0208609 559:0.162728 560:0.241461 561:0.167066 562:0.0638872 563:0.281513 564:0.245217 565:0.243782 566:0.215552 567:0.117723 568:0.0257534 569:0.049023 570:0.0514737 571:0.0334914 572:0.284511 573:0.259988 574:0.14502 575:0.0524932 576:0.018169 577:0.0302117 578:0.0678767 579:0.195125 580:0.350708 581:0.409819 582:0.213737 583:0.114526 584:0.136434 585:0.0437966 586:0.133455 587:0.0388417 588:0.039284 589:0.0147854 590:0.069803 591:0.0203969 592:0.0772784 593:0.0544214 594:0.106985 595:0.0585663 596:0.120406 597:0.116518 598:0.0748125 599:0.409819 600:0.409819 601:0.325911 602:0.121117 603:0.0353835 604:0.0530625 605:0.00979162 606:0.0153612 607:0.00852768 608:0.10761 609:0.0674765 610:0.0600306 611:0.0374717 612:0.125611 613:0.221102 614:0.075365 615:0.0861348 616:0.0455162 617:0.167484 618:0.0496033 619:0.13319 620:0.0863154 621:0.161766 622:0.454365 623:0.0597052 624:0.021275 625:0.00685661 626:0.0545836 627:0.0106625 628:0.0628029 629:0.0747848 630:0.386073 631:0.0797826 632:0.0161686 633:0.0260126 634:0.016619 635:0.254344 636:0.175227 637:0.115111 638:0.0609439 639:0.197564 640:0.338583 641:0.0241563 642:0.0269369 643:0.00562769 644:0.0698498 645:0.0198793 646:0.0557695 647:0.0716199 648:0.4346 649:0.422866 650:0.0441311 651:0.0162148 652:0.00460779 653:0.0411788 654:0.00980434 655:0.0535031 656:0.0623149 657:0.291435 658:0.429624 659:0.0804067 660:0.0159304 661:0.00457926 662:0.0569329 663:0.00324996 664:0.0128507 665:0.0239917 666:0.264472 667:0.240795 668:0.0183902 669:0.0209125 670:0.00439545 671:0.0538426 672:0.0165241 673:0.0465962 674:0.0574705 675:0.331215 676:0.367413 677:0.0340053 678:0.0199442 679:0.00162902 680:0.054976 681:0.0175582 682:0.0219997 683:0.0404893 684:0.36987 685:0.387577 686:0.0565394 687:0.0116838 688:0.00315923 689:0.0345148 690:0.00179273 691:0.00634059 692:0.0134546 693:0.1892 694:0.387577 695:0.035485 696:0.0191381 697:0.0117034 698:0.0876076 699:0.150462 700:0.0841174 701:0.166878 702:0.34877 703:0.255342 704:0.021702 705:0.0125854 706:0.00129789 707:0.0374396 708:0.00839322 709:0.0145215 710:0.027922 711:0.254027 712:0.387577 713:0.0704224 714:0.0302582 715:0.0126136 716:0.0695008 717:0.125047 718:0.0620701 719:0.0537721 720:0.387577 721:0.303551 722:0.0218886 723:0.0107364 724:0.0061369 725:0.0487951 726:0.0799656 727:0.0452199 728:0.0899428 729:0.190434 730:0.406439 731:0.0194871 732:0.0152492 733:0.00855203 734:0.033829 735:0.11582 736:0.0589109 737:0.146701 738:0.406439 739:0.255317 740:0.0394951 741:0.0163001 742:0.00648177 743:0.0402789 744:0.0669374 745:0.0344928 746:0.0306343 747:0.228006 748:0.406439 749:0.0582434 750:0.0204465 751:0.0205425 752:0.0309618 753:0.0894159 754:0.0471832 755:0.0655631 756:0.406439 757:0.351749 758:0.0104943 759:0.00878559 760:0.005306 761:0.0215837 762:0.0735268 763:0.036882 764:0.0885319 765:0.344629 766:0.351749 767:0.012958 768:0.00486079 769:0.000998075 770:0.00522853 771:0.0112871 772:0.00782657 773:0.0235353 774:0.351749 775:0.351749 776:0.0338469 777:0.0121551 778:0.0115666 779:0.0200031 780:0.0559866 781:0.0290059 782:0.0368461 783:0.332694 784:0.351749 785:0.0227418 786:0.00446798 787:0.00445135 788:0.00569859 789:0.0107907 790:0.00831124 791:0.0220109 792:0.351749 793:0.35249 794:0.0106255 795:0.00406862 796:0.00102442 797:0.00384207 798:0.0132237 799:0.00773155 800:0.0217667 801:0.35249 802:0.35249 803:0.0103804 804:0.00478338 805:4.29544e-005 806:0.00295514 807:0.00184966 808:0.00318351 809:0.00866245 810:0.35249 811:0.35249 812:0.0186181 813:0.00381335 814:0.00397812 815:0.00514716 816:0.0108364 817:0.00800999 818:0.018996 819:0.35249 820:0.35249 821:0.0185359 822:0.00431282 824:0.00236133 825:0.00237813 826:0.00230061 827:0.00875662 828:0.35249 829:0.352739 830:0.00873188 831:0.00390433 832:4.46693e-005 833:0.00287147 834:0.00175367 835:0.00301772 836:0.00731239 837:0.352739 838:0.352739 839:0.0115312 840:0.0027711 842:0.000932682 843:0.00139437 844:0.00212919 845:0.0106565 846:0.352739 847:0.352739 848:0.0156227 849:0.00352548 851:0.00236847 852:0.00225472 853:0.00236463 854:0.00781617 855:0.352739 856:0.352739 857:0.0146477 858:0.00246534 860:0.000369545 861:0.00179276 862:0.00202897 863:0.00924856 864:0.352739 865:0.333379 866:0.00910689 867:0.0025166 869:0.000785114 870:0.00114054 871:0.00176858 872:0.00930923 873:0.333379 874:0.333379 875:0.051353 876:0.045377 877:0.0437098 878:0.0464383 879:0.0869224 880:0.162037 881:0.148434 882:0.333379 883:0.333379 884:0.0119771 885:0.00219755 887:0.000271529 888:0.00146641 889:0.00159292 890:0.00815653 891:0.333379 892:0.333379 893:0.0814815 894:0.0685975 895:0.0616175 896:0.0506324 897:0.101278 898:0.11708 899:0.029324 900:0.333379 901:0.273914 902:0.0322836 903:0.024659 904:0.0231285 905:0.0242559 906:0.0442289 907:0.0937739 908:0.0925587 909:0.273914 910:0.0795094 911:0.0656159 912:0.117877 913:0.148601 914:0.187883 915:0.265059 916:0.273914 917:0.181979 918:0.128979 919:0.273914 920:0.0499305 921:0.0346262 922:0.0309124 923:0.0273317 924:0.0513713 925:0.0639127 926:0.0187306 927:0.273914 928:0.218156 929:0.130443 930:0.2055 931:0.241295 932:0.235059 933:0.273914 934:0.273914 935:0.0225115 936:0.121529 937:0.0516372 938:0.0761106 939:0.13062 940:0.162866 941:0.20479 942:0.22822 943:0.264618 944:0.157443 945:0.0635995 946:0.193034 947:0.200834 948:0.133342 949:0.0726521 950:0.0879455 951:0.0876436 952:0.250271 953:0.264618 954:0.205531 955:0.0373119 956:0.00851653 957:0.00937562 958:0.0206135 959:0.0503036 960:0.088685 961:0.264618 962:0.264618 963:0.122918 964:0.264618 965:0.200987 966:0.0613813 967:0.0162253 968:0.0219392 969:0.0533407 970:0.190026 971:0.264618 972:0.264618 973:0.151691 974:0.16021 975:0.110321 976:0.0636491 977:0.0732764 978:0.0751334 979:0.209596 980:0.245144 981:0.165626 982:0.111641 983:0.16538 984:0.123323 985:0.0584692 986:0.259267 987:0.214687 988:0.198175 989:0.179703 990:0.0924747 991:0.229121 992:0.147368 993:0.0458802 994:0.0132595 995:0.0199567 996:0.0359899 997:0.16425 998:0.259267 999:0.259267 1000:0.240377 1001:0.254497 1002:0.0995219 1003:0.0177544 1004:0.0919208 1005:0.259267 1006:0.259267 1007:0.0910944 1008:0.120858 1009:0.122853 1010:0.180454 1011:0.128286 1012:0.0568086 1013:0.256149 1014:0.196258 1015:0.197745 1016:0.196739 1017:0.101908 1018:0.0192022 1019:0.0364209 1020:0.0401076 1021:0.0313452 1022:0.278865 1023:0.20044 1024:0.0991432 1025:0.0469607 1026:0.0160803 1027:0.264078 1028:0.274548 1029:0.103478 1030:0.0177244 1031:0.0839484 1032:0.278865 1033:0.278865 1034:0.0938285 1035:0.137062 1036:0.0588474 1037:0.0555878 1038:0.0319551 1039:0.0105916 1040:0.133241 1041:0.278865 1042:0.278865 1043:0.258744 1044:0.0938252 1045:0.0304178 1046:0.0625787 1047:0.0634057 1048:0.0491138 1049:0.347431 1050:0.311378 1051:0.157777 1052:0.0760987 1053:0.0223708 1054:0.0298621 1055:0.0056673 1056:0.00875783 1057:0.00481012 1058:0.0626617 1059:0.0351192 1060:0.0294543 1061:0.0206772 1062:0.0664509 1063:0.0863139 1064:0.0971881 1065:0.0499967 1066:0.0156018 1067:0.198738 1068:0.347431 1069:0.347431 1070:0.331507 1071:0.112588 1072:0.242285 1073:0.00982853 1074:0.0132859 1075:0.00569153 1076:0.0625074 1077:0.0785926 1078:0.202218 1079:0.265885 1080:0.347431 1081:0.035458 1082:0.007414 1083:0.0117287 1084:0.00767936 1085:0.116652 1086:0.0721805 1087:0.0427696 1088:0.0264334 1089:0.0818073 1090:0.146536 1091:0.0109826 1092:0.0114482 1093:0.00255183 1094:0.0337345 1095:0.00853272 1096:0.0240995 1097:0.0296371 1098:0.182162 1099:0.296948 1100:0.01241 1101:0.017348 1102:0.00841397 1103:0.104075 1104:0.147682 1105:0.331838 1106:0.404249 1107:0.410049 1108:0.410049 1109:0.0260435 1110:0.016805 1111:0.0012902 1112:0.0234856 1113:0.0165377 1114:0.0448484 1115:0.0753238 1116:0.410049 1117:0.126102 1118:0.0100788 1119:0.0107284 1120:0.00236216 1121:0.0311129 1122:0.00855737 1123:0.0242053 1124:0.02868 1125:0.167039 1126:0.189273 1127:0.0184433 1128:0.0101938 1129:0.000975315 1130:0.0328725 1131:0.0089689 1132:0.0111344 1133:0.0196 1134:0.186161 1135:0.46404 1136:0.0234448 1137:0.0163561 1138:0.00142481 1139:0.0235948 1140:0.0167002 1141:0.0466786 1142:0.0847369 1143:0.46404 1144:0.46404 1145:0.0477123 1146:0.0124045 1148:0.0124311 1149:0.0183305 1150:0.017095 1151:0.0270812 1152:0.46404 1153:0.131852 1154:0.0118981 1155:0.00644592 1156:0.00077901 1157:0.0224454 1158:0.00437632 1159:0.00755985 1160:0.0135383 1161:0.128324 1162:0.235778 1163:0.0353768 1164:0.0165954 1165:0.00534817 1166:0.0372394 1167:0.0555867 1168:0.0242292 1169:0.0289475 1170:0.209358 1171:0.403322 1172:0.029145 1173:0.00733457 1175:0.00840804 1176:0.00629307 1177:0.00911489 1178:0.0190516 1179:0.403322 1180:0.403322 1181:0.19397 1182:0.0699173 1183:0.071054 1184:0.120776 1185:0.347057 1186:0.137564 1187:0.0252865 1188:0.403322 1189:0.129897 1190:0.0195406 1191:0.00876427 1192:0.00272812 1193:0.0214809 1194:0.0292632 1195:0.0134938 1196:0.0161341 1197:0.114774 1198:0.351584 1199:0.0293997 1200:0.0118927 1201:0.00709722 1202:0.0152997 1203:0.0372957 1204:0.0191712 1205:0.0365144 1206:0.316938 1207:0.351584 1208:0.105163 1209:0.0375504 1210:0.0358301 1211:0.061309 1212:0.183971 1213:0.0729282 1214:0.0148851 1215:0.351584 1216:0.351584 1217:0.147881 1218:0.0797863 1219:0.118091 1220:0.125663 1221:0.342238 1222:0.0949887 1223:0.0175018 1224:0.351584 1225:0.244071 1226:0.0216593 1227:0.00895147 1228:0.00521911 1229:0.0125753 1230:0.0299185 1231:0.0148177 1232:0.0261603 1233:0.213275 1234:0.359175 1235:0.0158296 1236:0.00356639 1237:0.00172832 1238:0.00428224 1239:0.00648462 1240:0.00557535 1241:0.0148384 1242:0.357567 1243:0.359175 1244:0.115316 1245:0.0594076 1246:0.0843521 1247:0.0937943 1248:0.261546 1249:0.076694 1250:0.0128477 1251:0.359175 1252:0.359175 1253:0.0290085 1254:0.0223995 1255:0.0348967 1256:0.0342554 1257:0.0613802 1258:0.0133986 1259:0.0219054 1260:0.359175 1261:0.322277 1262:0.0136513 1263:0.00320823 1264:0.00168537 1265:0.00387441 1266:0.00669785 1267:0.00542681 1268:0.0136097 1269:0.293663 1270:0.370221 1271:0.0135938 1272:0.00363745 1274:0.00199175 1275:0.00200013 1276:0.00193504 1277:0.00585243 1278:0.334192 1279:0.370221 1280:0.0280522 1281:0.020526 1282:0.0327709 1283:0.034279 1284:0.0613384 1285:0.014567 1286:0.0175964 1287:0.370221 1288:0.370221 1289:0.0124568 1290:0.00567797 1291:0.000519419 1292:0.00586412 1293:0.00317793 1294:0.00506132 1295:0.0219634 1296:0.370221 1297:0.340137 1298:0.0114024 1299:0.00295593 1301:0.0019864 1302:0.00188554 1303:0.00196592 1304:0.00507922 1305:0.28827 1306:0.364441 1307:0.0107059 1308:0.00206767 1310:0.000309037 1311:0.00149922 1312:0.00170065 1313:0.00681675 1314:0.363286 1315:0.364441 1316:0.0101853 1317:0.00481176 1318:0.000524741 1319:0.00513415 1320:0.00297371 1321:0.00486921 1322:0.0201481 1323:0.364441 1324:0.364441 1325:0.0113461 1326:0.00262102 1328:0.00806666 1329:0.00595155 1330:0.00246671 1331:0.0179059 1332:0.364441 1333:0.334924 1334:0.00905436 1335:0.00191289 1337:0.000235586 1338:0.0012723 1339:0.0013859 1340:0.00614831 1341:0.323549 1342:0.34504 1343:0.0617677 1344:0.0529555 1345:0.0475264 1346:0.0415146 1347:0.0802341 1348:0.0939514 1349:0.0249171 1350:0.31485 1351:0.36299 1352:0.00971735 1353:0.00271079 1355:0.00705616 1356:0.00502319 1357:0.00229004 1358:0.016766 1359:0.36299 1360:0.36299 1361:0.0558713 1362:0.0359301 1363:0.0191941 1364:0.0202132 1365:0.0272072 1366:0.0313318 1367:0.0172272 1368:0.36299 1369:0.289522 1370:0.0456197 1371:0.0321765 1372:0.0289178 1373:0.0274787 1374:0.0496592 1375:0.0621406 1376:0.0191385 1377:0.274071 1378:0.17625 1379:0.117117 1380:0.190466 1381:0.221069 1382:0.21352 1383:0.310476 1384:0.292051 1385:0.0251752 1386:0.0997129 1387:0.310476 1388:0.0395514 1389:0.0200469 1390:0.0100945 1391:0.0146877 1392:0.0169769 1393:0.0205911 1394:0.0141642 1395:0.310476 1396:0.310476 1397:0.146359 1398:0.15157 1399:0.13145 1400:0.12032 1401:0.12311 1402:0.0937901 1403:0.00892297 1404:0.257307 
3.004819499506369 1:0.202839 2:0.266921 3:0.129863 4:0.0678686 5:0.045062 6:0.0125646 7:0.0295111 8:0.0770471 9:0.207513 10:0.140995 11:0.1116 12:0.105128 13:0.197053 14:0.162794 15:0.0116604 16:0.138867 17:0.238327 18:0.266921 19:0.163103 20:0.258708 21:0.150049 22:0.141469 23:0.149237 24:0.0809874 25:0.194277 26:0.155605 27:0.173902 28:0.1717 29:0.227608 30:0.113697 31:0.137443 32:0.255327 33:0.0696249 34:0.178022 35:0.204262 36:0.203915 37:0.147308 38:0.115807 39:0.0952026 40:0.173149 41:0.144672 42:0.0108223 43:0.125573 44:0.227473 45:0.285431 46:0.0927202 47:0.169564 48:0.231562 49:0.285431 50:0.285431 51:0.0120132 52:0.0862645 53:0.102127 54:0.0687014 55:0.176626 56:0.228237 57:0.105331 58:0.122602 59:0.229161 60:0.0608012 61:0.16591 62:0.199311 63:0.211073 64:0.0609977 65:0.0991011 66:0.105022 67:0.233103 68:0.285431 69:0.115145 70:0.112755 71:0.0892142 72:0.067627 73:0.107581 74:0.197349 75:0.286469 76:0.329981 77:0.329981 78:0.0154108 79:0.11693 80:0.142571 81:0.106114 82:0.240219 83:0.210409 84:0.139238 85:0.178625 86:0.162301 87:0.00495024 88:0.0445029 89:0.0514644 90:0.139652 91:0.0878534 92:0.13773 93:0.139353 94:0.302583 95:0.329981 96:0.145191 97:0.152113 98:0.122776 99:0.100972 100:0.0487935 101:0.0423128 102:0.0573911 103:0.10936 104:0.214537 105:0.0600553 106:0.0592965 107:0.0635157 108:0.0665667 109:0.315266 110:0.308159 111:0.208228 112:0.27195 113:0.241958 114:0.00736116 115:0.0601692 116:0.0643125 117:0.168148 118:0.365412 119:0.0978954 120:0.0519101 121:0.0340141 122:0.0761432 123:0.0090222 124:0.0782116 125:0.153886 126:0.367048 127:0.0686325 128:0.0619052 129:0.0799349 130:0.160276 131:0.317887 132:0.0929319 133:0.079936 134:0.0808703 135:0.0882893 136:0.119349 137:0.038831 138:0.0545998 139:0.0604861 140:0.100265 141:0.00668411 142:0.0866193 143:0.164209 144:0.186233 145:0.35851 146:0.107832 147:0.0529926 148:0.0387612 149:0.0784091 150:0.00834539 151:0.0779563 152:0.145137 153:0.429206 154:0.429206 155:0.0767833 156:0.0471668 157:0.0182014 158:0.0753319 159:0.0176465 160:0.0738725 161:0.186153 162:0.429206 163:0.113154 164:0.0420571 165:0.056818 166:0.0642102 167:0.101411 168:0.00661307 169:0.0877984 170:0.161868 171:0.178323 172:0.150491 173:0.0458238 174:0.069219 175:0.0381591 176:0.111762 177:0.0182573 178:0.0692523 179:0.138973 180:0.21165 181:0.353221 182:0.0630795 183:0.0405632 184:0.0145415 185:0.0631174 186:0.0153289 187:0.0608935 188:0.150605 189:0.441879 190:0.441879 191:0.0908002 192:0.0386273 193:0.0299399 194:0.0849174 195:0.00353743 196:0.0459767 197:0.19333 198:0.441879 199:0.120789 200:0.0361189 201:0.0548976 202:0.0335711 203:0.0905828 204:0.0132965 205:0.0579834 206:0.120139 207:0.177265 208:0.151727 209:0.0715951 210:0.103227 211:0.0440672 212:0.132754 213:0.0264552 214:0.0756511 215:0.128501 216:0.179772 217:0.374415 218:0.0640715 219:0.0285501 220:0.0229655 221:0.0626627 222:0.00309698 223:0.0344956 224:0.139562 225:0.387105 226:0.387105 227:0.0358445 228:0.0395608 229:0.0589674 230:0.251264 231:0.126244 232:0.169008 233:0.234917 234:0.387105 235:0.106413 236:0.05017 237:0.0739308 238:0.0317839 239:0.0956311 240:0.0193119 241:0.0544635 242:0.0915195 243:0.130539 244:0.176881 245:0.0511704 246:0.0708876 247:0.0386782 248:0.155748 249:0.0477725 250:0.122894 251:0.168119 252:0.19658 253:0.273397 254:0.0250797 255:0.0241628 256:0.0351218 257:0.15054 258:0.0719882 259:0.0999193 260:0.144024 261:0.334431 262:0.276266 263:0.0171123 264:0.027571 265:0.0485427 266:0.30073 267:0.235111 268:0.193851 269:0.268214 270:0.334431 271:0.109912 272:0.033453 273:0.0464436 274:0.0264226 275:0.0976599 276:0.0287918 277:0.0760115 278:0.106421 279:0.121166 280:0.262867 281:0.0279213 282:0.0286382 283:0.0149142 284:0.126037 285:0.0440431 286:0.114843 287:0.173943 288:0.334431 289:0.198226 290:0.0112464 291:0.0202837 292:0.0405105 293:0.234715 294:0.175313 295:0.15258 296:0.201118 297:0.360787 298:0.34791 299:0.0291411 300:0.0258755 301:0.0144296 302:0.0820783 303:0.080782 304:0.0441796 305:0.112302 306:0.360787 307:0.184039 308:0.0210068 309:0.0219748 310:0.0133663 311:0.0981897 312:0.034827 313:0.0886497 314:0.131396 315:0.268229 316:0.330009 317:0.0202043 318:0.0146647 319:0.00760479 320:0.0556871 321:0.0106535 322:0.0393608 323:0.0838006 324:0.360787 325:0.279107 326:0.0233685 327:0.0208193 328:0.0136695 329:0.0757341 330:0.0731316 331:0.0433357 332:0.101723 333:0.383901 334:0.326979 335:0.0288617 336:0.0189126 337:0.0105642 338:0.0569289 339:0.00804002 340:0.0180368 341:0.0603566 342:0.383901 343:0.264718 344:0.0158796 345:0.012295 346:0.00633356 347:0.0487642 348:0.010081 349:0.035584 350:0.0729162 351:0.383901 352:0.318873 353:0.0391845 354:0.018901 355:0.0108945 356:0.0340937 357:0.00665301 358:0.0272248 359:0.0596218 360:0.383901 361:0.279376 362:0.0248631 363:0.0167449 364:0.00966455 365:0.0451984 366:0.00682214 367:0.0129224 368:0.0486249 369:0.372797 370:0.367927 371:0.0280566 372:0.0324408 373:0.0105969 374:0.0626728 375:0.00809149 376:0.0321482 377:0.0766788 378:0.372797 379:0.271369 380:0.031296 381:0.0147238 382:0.00970572 383:0.029143 384:0.00549991 385:0.0217565 386:0.0496701 387:0.372797 388:0.346546 389:0.044407 390:0.0303205 391:0.0108964 392:0.0460894 393:0.0102498 394:0.0303628 395:0.0588665 396:0.372797 397:0.317045 398:0.0244306 399:0.026301 400:0.00924942 401:0.0572137 402:0.00676153 403:0.026752 404:0.0640333 405:0.358102 406:0.358102 407:0.0297861 408:0.035607 409:0.0144093 410:0.0445221 411:0.00838419 412:0.0301637 413:0.062202 414:0.358102 415:0.300442 416:0.0400314 417:0.0253221 418:0.010182 419:0.0395671 420:0.00916857 421:0.02501 422:0.0493662 423:0.358102 424:0.358102 425:0.0324742 426:0.0287963 427:0.0046169 428:0.0597686 429:0.00625975 430:0.0335922 431:0.061731 432:0.358102 433:0.349556 434:0.0257586 435:0.0340708 436:0.0129921 437:0.0404024 438:0.00719989 439:0.0266651 440:0.0557685 441:0.349556 442:0.234557 443:0.0309402 444:0.0310727 445:0.00964382 446:0.0475303 447:0.0513681 448:0.0906989 449:0.125246 450:0.349556 451:0.336317 452:0.028519 453:0.0253947 454:0.00457243 455:0.050247 456:0.00573681 457:0.0286078 458:0.0524279 459:0.349556 460:0.208246 461:0.0553984 462:0.194583 463:0.0575984 464:0.173327 465:0.10461 466:0.150848 467:0.141949 468:0.349556 469:0.137369 470:0.237083 471:0.140483 472:0.122797 473:0.120908 474:0.060604 475:0.153121 476:0.126332 477:0.137954 478:0.135463 479:0.18655 480:0.0943556 481:0.121568 482:0.20902 483:0.0511754 484:0.166586 485:0.189987 486:0.172987 487:0.190471 488:0.131396 489:0.0349658 490:0.0391017 491:0.0685793 492:0.080742 493:0.235188 494:0.262407 495:0.268607 496:0.248761 497:0.268607 498:0.0941772 499:0.0494935 500:0.268607 501:0.224613 502:0.0716289 503:0.0840091 504:0.223168 505:0.146739 506:0.197834 507:0.0925849 508:0.113938 509:0.197491 510:0.0471673 511:0.162402 512:0.193796 513:0.188499 514:0.0500462 515:0.0857553 516:0.0991604 517:0.225096 518:0.293058 519:0.0878842 520:0.10848 521:0.0871671 522:0.060434 523:0.27582 524:0.293058 525:0.0889561 526:0.0461526 527:0.261117 528:0.204167 529:0.0755914 530:0.0973979 531:0.246472 532:0.0694873 533:0.134533 534:0.0683792 535:0.0832516 536:0.293058 537:0.293058 538:0.113788 539:0.0722134 540:0.069936 541:0.0816931 542:0.136481 543:0.149782 544:0.33323 545:0.369615 546:0.126625 547:0.168145 548:0.138021 549:0.104024 550:0.0492666 551:0.0421168 552:0.0612328 553:0.121927 554:0.219583 555:0.0524919 556:0.0581956 557:0.0648649 558:0.0697553 559:0.122545 560:0.218167 561:0.104669 562:0.123247 563:0.369615 564:0.369615 565:0.162511 566:0.0964172 567:0.106967 568:0.0725445 569:0.0388283 570:0.0619895 571:0.0628642 572:0.25597 573:0.127245 574:0.107558 575:0.108031 576:0.108779 577:0.0818359 578:0.0737246 579:0.103172 580:0.213122 581:0.385804 582:0.0964135 583:0.0933601 584:0.0976133 585:0.109428 586:0.142827 587:0.0479778 588:0.0639678 589:0.0728018 590:0.122737 591:0.00810936 592:0.102948 593:0.208898 594:0.233063 595:0.113614 596:0.0603524 597:0.0916858 598:0.102858 599:0.415893 600:0.253236 601:0.178919 602:0.179849 603:0.173679 604:0.2532 605:0.0868847 606:0.119979 607:0.111936 608:0.141283 609:0.0406545 610:0.104377 611:0.133165 612:0.259867 613:0.146379 614:0.0555458 615:0.0720841 616:0.0842644 617:0.134304 618:0.00841098 619:0.112604 620:0.222461 621:0.241612 622:0.197985 623:0.0669333 624:0.0909046 625:0.0469546 626:0.150652 627:0.0239641 628:0.0930606 629:0.195397 630:0.289065 631:0.25878 632:0.0950476 633:0.132627 634:0.123081 635:0.16201 636:0.0408169 637:0.116549 638:0.140799 639:0.270807 640:0.3527 641:0.0857964 642:0.136659 643:0.134176 644:0.14796 645:0.0587862 646:0.0924333 647:0.194793 648:0.358433 649:0.164439 650:0.0549522 651:0.0752213 652:0.0431013 653:0.12742 654:0.0184942 655:0.0806604 656:0.176002 657:0.251992 658:0.216542 659:0.103089 660:0.136967 661:0.0556861 662:0.181232 663:0.0328507 664:0.10283 665:0.183144 666:0.262266 667:0.306714 668:0.0730744 669:0.11542 670:0.116751 671:0.120765 672:0.0485628 673:0.0802124 674:0.161661 675:0.308442 676:0.26678 677:0.170301 678:0.209201 679:0.155765 680:0.200871 681:0.0561198 682:0.152242 683:0.191903 684:0.267226 685:0.142669 686:0.0685173 687:0.0927552 688:0.0381145 689:0.123777 690:0.022734 691:0.070088 692:0.123772 693:0.179534 694:0.233939 695:0.0618363 696:0.0886322 697:0.0493461 698:0.208758 699:0.0627839 700:0.161976 701:0.234248 702:0.271 703:0.187448 704:0.109319 705:0.141315 706:0.10809 707:0.138161 708:0.0379016 709:0.0989085 710:0.134293 711:0.188459 712:0.396451 713:0.215228 714:0.199854 715:0.0921018 716:0.21467 717:0.0970194 718:0.178984 719:0.1004 720:0.330989 721:0.137541 722:0.0384772 723:0.0547006 724:0.0315107 725:0.12379 726:0.0355464 727:0.0947574 728:0.139953 729:0.158498 730:0.331881 731:0.0323745 732:0.0364736 733:0.0200966 734:0.167282 735:0.0615074 736:0.145363 737:0.232101 738:0.391636 739:0.229516 740:0.130896 741:0.121527 742:0.0611092 743:0.124109 744:0.0550031 745:0.106817 746:0.0655606 747:0.181949 748:0.391636 749:0.115568 750:0.0945413 751:0.0292009 752:0.15749 753:0.0533724 754:0.0943375 755:0.0796503 756:0.391636 757:0.18904 758:0.0194605 759:0.022456 760:0.0145579 761:0.106757 762:0.0392595 763:0.092173 764:0.143843 765:0.28634 766:0.349737 767:0.0209782 768:0.0161964 769:0.00744234 770:0.0559483 771:0.013308 772:0.0372241 773:0.0879082 774:0.360375 775:0.360375 776:0.0773992 777:0.0643889 778:0.0211749 779:0.100887 780:0.0368363 781:0.0585181 782:0.0436568 783:0.358554 784:0.360375 785:0.0512805 786:0.0215403 787:0.00897769 788:0.0548214 789:0.0134516 790:0.0528327 791:0.123754 792:0.360375 793:0.266615 794:0.0158751 795:0.0129264 796:0.00600689 797:0.0471757 798:0.0119104 799:0.0325537 800:0.0732218 801:0.358289 802:0.327685 803:0.0351649 804:0.0183298 805:0.00988974 806:0.0304822 807:0.00624272 808:0.0230595 809:0.0573034 810:0.358289 811:0.358289 812:0.0405672 813:0.017473 814:0.00728287 815:0.0450562 816:0.0111477 817:0.0409173 818:0.0909193 819:0.358289 820:0.358289 821:0.0615671 822:0.0338637 823:0.00806869 824:0.0471366 825:0.0101093 826:0.0464887 827:0.0919068 828:0.358289 829:0.291851 830:0.0296155 831:0.014979 832:0.00922679 833:0.0273641 834:0.00531621 835:0.0191418 836:0.0499988 837:0.357738 838:0.357738 839:0.0420253 840:0.0308228 841:0.0104053 842:0.0448731 843:0.010618 844:0.0293651 845:0.0596421 846:0.357738 847:0.357738 848:0.0546997 849:0.0288787 850:0.00786281 851:0.0402721 852:0.0101631 853:0.0403129 854:0.0854461 855:0.357738 856:0.317937 857:0.0462364 858:0.0287482 859:0.0143428 860:0.0449962 861:0.00619164 862:0.0446202 863:0.0796296 864:0.357738 865:0.344801 866:0.039191 867:0.0267032 868:0.0101 869:0.0400308 870:0.00982114 871:0.0250828 872:0.0521274 873:0.356077 874:0.356077 875:0.0329434 876:0.0288059 877:0.00471487 878:0.0599878 879:0.00635327 880:0.0335664 881:0.0626442 882:0.356077 883:0.295596 884:0.0450557 885:0.0264083 886:0.013015 887:0.0424408 888:0.00592697 889:0.0379331 890:0.0691776 891:0.356077 892:0.331507 893:0.0304855 894:0.0373721 895:0.0195654 896:0.0613382 897:0.0124173 898:0.054747 899:0.0878778 900:0.356077 901:0.330214 902:0.0263863 903:0.0234619 904:0.00421196 905:0.0461436 906:0.00533241 907:0.0261602 908:0.0486542 909:0.330214 910:0.217604 911:0.0493869 912:0.162892 913:0.0487001 914:0.153344 915:0.0935929 916:0.145101 917:0.144319 918:0.330214 919:0.265217 920:0.0226992 921:0.0281032 922:0.0167058 923:0.0442996 924:0.00976968 925:0.0431906 926:0.0681489 927:0.330214 928:0.277369 929:0.102529 930:0.246338 931:0.144591 932:0.209419 933:0.171302 934:0.154056 935:0.0824012 936:0.218993 937:0.19562 938:0.145518 939:0.0456471 940:0.0494924 941:0.0811904 942:0.0930112 943:0.272835 944:0.278594 945:0.28446 946:0.257569 947:0.28446 948:0.113571 949:0.0619298 950:0.28446 951:0.225774 952:0.0774193 953:0.0854806 954:0.227423 955:0.126045 956:0.0600795 957:0.0281636 958:0.00206262 959:0.0449372 960:0.04697 961:0.0871082 962:0.133736 963:0.198417 964:0.147651 965:0.132664 966:0.0293242 967:0.00414582 968:0.194686 969:0.28446 970:0.163416 971:0.162819 972:0.149618 973:0.229225 974:0.293901 975:0.0863787 976:0.0465441 977:0.222829 978:0.165276 979:0.0665159 980:0.0809885 981:0.201597 982:0.0611638 983:0.121169 984:0.0669209 985:0.0834477 986:0.293901 987:0.278145 988:0.0863558 989:0.0461181 990:0.0567681 991:0.13265 992:0.10919 993:0.0234459 994:0.00304179 995:0.147444 996:0.222831 997:0.124721 998:0.11709 999:0.132658 1000:0.038565 1001:0.0471974 1002:0.0160145 1003:0.00830017 1004:0.244334 1005:0.293901 1006:0.293493 1007:0.293901 1008:0.206246 1009:0.07663 1010:0.140411 1011:0.0734265 1012:0.0884494 1013:0.327601 1014:0.302369 1015:0.0886185 1016:0.0442607 1017:0.0627785 1018:0.0439409 1019:0.0231885 1020:0.0382078 1021:0.0415385 1022:0.157793 1023:0.0763575 1024:0.0605666 1025:0.0561757 1026:0.0598739 1027:0.0438781 1028:0.0541185 1029:0.0174002 1030:0.00855586 1031:0.262599 1032:0.327601 1033:0.299643 1034:0.327601 1035:0.18748 1036:0.169583 1037:0.0267512 1038:0.02472 1039:0.0104903 1040:0.12444 1041:0.0720271 1042:0.139102 1043:0.327601 1044:0.327601 1045:0.0543094 1046:0.0287496 1047:0.0443742 1048:0.0535691 1049:0.222977 1050:0.118138 1051:0.0780457 1052:0.0719615 1053:0.0742987 1054:0.117998 1055:0.0364532 1056:0.0556412 1057:0.054255 1058:0.0669349 1059:0.0177414 1060:0.0505361 1061:0.0623777 1062:0.121422 1063:0.190843 1064:0.0316752 1065:0.0286776 1066:0.0126749 1067:0.16978 1068:0.116774 1069:0.188765 1070:0.419628 1071:0.419628 1072:0.419628 1073:0.0730605 1074:0.0433826 1075:0.0196413 1076:0.0681306 1077:0.0429498 1078:0.0621366 1079:0.143692 1080:0.419628 1081:0.110436 1082:0.0366656 1083:0.0562007 1084:0.054447 1085:0.070054 1086:0.0162802 1087:0.0515596 1088:0.0607222 1089:0.115475 1090:0.146908 1091:0.0342429 1092:0.0603109 1093:0.0585594 1094:0.0657079 1095:0.025908 1096:0.0404209 1097:0.0790099 1098:0.149808 1099:0.423425 1100:0.0696654 1101:0.0449137 1102:0.0200636 1103:0.0719502 1104:0.0385089 1105:0.0621592 1106:0.149092 1107:0.455391 1108:0.455391 1109:0.0808655 1110:0.0373214 1111:0.0414487 1112:0.0636829 1113:0.0285429 1114:0.0597923 1115:0.162033 1116:0.455391 1117:0.134598 1118:0.0305428 1119:0.053434 1120:0.0539071 1121:0.0564513 1122:0.0221816 1123:0.0369828 1124:0.069247 1125:0.136009 1126:0.113563 1127:0.0731675 1128:0.0981141 1129:0.071475 1130:0.096452 1131:0.0282291 1132:0.0698286 1133:0.0848914 1134:0.114479 1135:0.440692 1136:0.0725907 1137:0.0335641 1138:0.0351662 1139:0.0547898 1140:0.0286359 1141:0.0544826 1142:0.146024 1143:0.440692 1144:0.440692 1145:0.15272 1146:0.0649843 1147:0.0491777 1148:0.0792379 1149:0.0104821 1150:0.0926732 1151:0.129033 1152:0.440692 1153:0.0896992 1154:0.0527282 1155:0.0743231 1156:0.0554758 1157:0.0741841 1158:0.0215834 1159:0.0512408 1160:0.066307 1161:0.0907072 1162:0.194468 1163:0.104675 1164:0.0987083 1165:0.0466366 1166:0.106793 1167:0.0462485 1168:0.0922749 1169:0.0536028 1170:0.162587 1171:0.373538 1172:0.104083 1173:0.0483781 1174:0.0403862 1175:0.063274 1176:0.00545719 1177:0.0652566 1178:0.103528 1179:0.373538 1180:0.373538 1181:0.301764 1182:0.232943 1183:0.139411 1184:0.237535 1185:0.117482 1186:0.116673 1187:0.055037 1188:0.373538 1189:0.124137 1190:0.0701052 1191:0.0666202 1192:0.0344263 1193:0.0687762 1194:0.0292198 1195:0.0607297 1196:0.0383341 1197:0.0983972 1198:0.334977 1199:0.0620067 1200:0.0483306 1201:0.0138368 1202:0.0833157 1203:0.0276647 1204:0.0567052 1205:0.0481689 1206:0.341258 1207:0.341258 1208:0.195205 1209:0.145717 1210:0.0880689 1211:0.146969 1212:0.0702444 1213:0.0765974 1214:0.0405468 1215:0.301555 1216:0.341258 1217:0.163733 1218:0.203841 1219:0.152393 1220:0.241822 1221:0.0798377 1222:0.051219 1223:0.037862 1224:0.341258 1225:0.24299 1226:0.0507917 1227:0.0404201 1228:0.0126272 1229:0.0648754 1230:0.0232048 1231:0.0430002 1232:0.0327336 1233:0.239655 1234:0.319058 1235:0.0332406 1236:0.0144144 1237:0.00657495 1238:0.0401682 1239:0.00863329 1240:0.0368505 1241:0.0837074 1242:0.354644 1243:0.354644 1244:0.139258 1245:0.165556 1246:0.122143 1247:0.19547 1248:0.0690744 1249:0.0407028 1250:0.0246472 1251:0.354644 1252:0.354644 1253:0.0532298 1254:0.0413904 1255:0.0330633 1256:0.0614419 1257:0.0105589 1258:0.0277423 1259:0.0927924 1260:0.354644 1261:0.266606 1262:0.0285032 1263:0.0125346 1264:0.00560358 1265:0.0353444 1266:0.00771179 1267:0.0311663 1268:0.0670417 1269:0.343231 1270:0.291525 1271:0.0457577 1272:0.0251728 1273:0.00704674 1274:0.0363492 1275:0.0070905 1276:0.0360901 1277:0.0694897 1278:0.364063 1279:0.369245 1280:0.0472274 1281:0.0420327 1282:0.0332705 1283:0.0589352 1284:0.0124299 1285:0.0237885 1286:0.0737977 1287:0.369245 1288:0.369245 1289:0.0601655 1290:0.0272782 1291:0.00532609 1292:0.0483102 1293:0.00513121 1294:0.0185906 1295:0.0680513 1296:0.369245 1297:0.266052 1298:0.0413487 1299:0.0220025 1300:0.00705228 1301:0.032094 1302:0.00725626 1303:0.0319323 1304:0.0659128 1305:0.338463 1306:0.23126 1307:0.0368868 1308:0.0224136 1309:0.0106479 1310:0.0363298 1311:0.00502412 1312:0.0352139 1313:0.0626652 1314:0.337129 1315:0.390228 1316:0.0553278 1317:0.0237988 1318:0.00528963 1319:0.0424699 1320:0.00541497 1321:0.0175913 1322:0.0651953 1323:0.390228 1324:0.390228 1325:0.035984 1326:0.0199817 1327:0.00993219 1328:0.0391764 1329:0.00552366 1330:0.0217237 1331:0.0587833 1332:0.390228 1333:0.21921 1334:0.0365262 1335:0.0209549 1336:0.00997771 1337:0.0347074 1338:0.00484953 1339:0.0305753 1340:0.0555047 1341:0.313284 1342:0.243784 1343:0.0246704 1344:0.0295865 1345:0.0139244 1346:0.0508699 1347:0.00969226 1348:0.0439592 1349:0.0718968 1350:0.299454 1351:0.408914 1352:0.0369919 1353:0.0190774 1354:0.00867956 1355:0.0373806 1356:0.00487901 1357:0.0185589 1358:0.0535563 1359:0.408914 1360:0.408914 1361:0.0366116 1362:0.0250255 1363:0.0188478 1364:0.0362536 1365:0.0101043 1366:0.0295882 1367:0.0462232 1368:0.408914 1369:0.206956 1370:0.0196073 1371:0.0233974 1372:0.0126075 1373:0.0389891 1374:0.00809076 1375:0.0366054 1376:0.0588204 1377:0.260345 1378:0.210271 1379:0.0823586 1380:0.223726 1381:0.11877 1382:0.181478 1383:0.140903 1384:0.131794 1385:0.0754719 1386:0.183128 1387:0.371062 1388:0.0258127 1389:0.0200515 1390:0.0165264 1391:0.0298044 1392:0.00895513 1393:0.0258706 1394:0.0400643 1395:0.371062 1396:0.371062 1397:0.210289 1398:0.153749 1399:0.119464 1400:0.0726264 1401:0.0724064 1402:0.0668582 1403:0.0347893 1404:0.371062 
20.41403572409872 1:0.266167 2:0.151615 3:0.0577696 4:0.0169676 5:0.00685627 6:0.000173916 7:0.0112793 8:0.0524424 9:0.185621 10:0.144242 11:0.0324184 12:0.0142715 13:0.0374277 14:0.101821 15:0.000859421 16:0.0847289 17:0.237699 18:0.261301 19:0.266167 20:0.266167 21:0.181764 22:0.0904062 23:0.0889398 24:0.0773593 25:0.0997001 26:0.166743 27:0.266167 28:0.266167 29:0.266167 30:0.184595 31:0.0405386 32:0.0972787 33:0.0163563 34:0.250004 35:0.266167 36:0.266167 37:0.128264 38:0.0294947 39:0.00832349 40:0.0186754 41:0.0568187 42:0.000577605 43:0.0615514 44:0.180518 45:0.225068 46:0.187065 47:0.127868 48:0.0926052 49:0.199276 50:0.261856 51:0.00428258 52:0.0404424 53:0.106201 54:0.0707233 55:0.261856 56:0.258139 57:0.133069 58:0.0237904 59:0.0530926 60:0.00799035 61:0.178321 62:0.261856 63:0.261856 64:0.139141 65:0.219187 66:0.184268 67:0.182492 68:0.261856 69:0.0873355 70:0.221963 71:0.261856 72:0.221951 73:0.16317 74:0.115634 75:0.0839413 76:0.181989 77:0.284932 78:0.00400408 79:0.0466787 80:0.123377 81:0.0824232 82:0.284932 83:0.208505 84:0.0961799 85:0.151908 86:0.284932 87:0.0115979 88:0.00445494 89:0.00600286 90:0.0642983 91:0.147214 92:0.23718 93:0.186924 94:0.167598 95:0.284932 96:0.0788438 97:0.229963 98:0.284932 99:0.248503 100:0.0869394 101:0.0712202 102:0.102686 103:0.150055 104:0.284932 105:0.0781359 106:0.0837506 107:0.0428525 108:0.0555146 109:0.376221 110:0.272866 111:0.133226 112:0.21774 113:0.376221 114:0.0120523 115:0.00441443 116:0.0117775 117:0.0741674 118:0.376221 119:0.211858 120:0.0449688 121:0.0441416 122:0.0639779 123:0.0419478 124:0.114215 125:0.0789321 126:0.195789 127:0.115644 128:0.101968 129:0.141312 130:0.212102 131:0.376221 132:0.107366 133:0.113478 134:0.0704225 135:0.0800124 136:0.0848465 137:0.0626991 138:0.053543 139:0.0461053 140:0.0611669 141:0.0416836 142:0.111428 143:0.0932321 144:0.071633 145:0.339836 146:0.138919 147:0.0318979 148:0.0320244 149:0.045749 150:0.0258301 151:0.0680427 152:0.0387329 153:0.123058 154:0.339836 155:0.323184 156:0.0614585 157:0.0513322 158:0.0434354 159:0.0216204 160:0.145047 161:0.312695 162:0.320057 163:0.0527837 164:0.0356126 165:0.0365516 166:0.0338859 167:0.0522909 168:0.0280878 169:0.0684504 170:0.0478544 171:0.0423869 172:0.292004 173:0.177183 174:0.0503184 175:0.0330983 176:0.0277314 177:0.0214999 178:0.120229 179:0.339836 180:0.339836 181:0.353481 182:0.184273 183:0.0365017 184:0.0328904 185:0.0301098 186:0.0149802 187:0.0919918 188:0.175076 189:0.182738 190:0.353481 191:0.272548 192:0.0169164 193:0.0082248 194:0.00423732 195:0.0014983 196:0.026805 197:0.157332 198:0.328852 199:0.155413 200:0.0989957 201:0.0308304 202:0.0215165 203:0.0188923 204:0.0145787 205:0.07644 206:0.190979 207:0.208528 208:0.353481 209:0.130671 210:0.0136239 211:0.00625848 212:0.00543659 213:0.00754157 214:0.0247023 215:0.196622 216:0.353481 217:0.350218 218:0.204858 219:0.0138885 220:0.00726362 221:0.00482289 222:0.00137025 223:0.0237488 224:0.132692 225:0.246197 226:0.350218 227:0.247291 228:0.0201506 229:0.0136165 230:0.0268274 231:0.00818515 232:0.00353802 233:0.0187179 234:0.169163 235:0.350218 236:0.10132 237:0.011069 238:0.00527388 239:0.00493584 240:0.00557289 241:0.0211683 242:0.161532 243:0.350218 244:0.350218 245:0.112309 246:0.003844 247:0.00154539 248:0.00377075 249:0.00839327 250:0.00620623 251:0.0484907 252:0.344369 253:0.377349 254:0.26036 255:0.019066 256:0.0129175 257:0.0254394 258:0.00778813 259:0.00349343 260:0.0247257 261:0.190396 262:0.377349 263:0.259518 264:0.0393461 265:0.0395263 266:0.0669193 267:0.0188112 268:0.00736905 269:0.0130904 270:0.112986 271:0.377349 272:0.116838 273:0.00419648 274:0.00176539 275:0.0039644 276:0.00896107 277:0.00621482 278:0.0588315 279:0.377349 280:0.377349 281:0.165618 282:0.00945109 283:0.0150237 284:0.0569541 285:0.00948593 286:0.0223745 287:0.0484434 288:0.197214 289:0.362517 290:0.262705 291:0.0405288 292:0.0383919 293:0.0659442 294:0.0187893 295:0.00751745 296:0.0139801 297:0.114492 298:0.362517 299:0.268369 300:0.0127496 301:0.0173645 302:0.0306039 303:0.00634032 304:0.00186954 305:0.0040392 306:0.0922154 307:0.362517 308:0.156638 309:0.0090471 310:0.0110396 311:0.0486644 312:0.0090459 313:0.0192512 314:0.0441038 315:0.202069 316:0.362517 317:0.342744 318:0.0259391 319:0.0568577 320:0.122976 321:0.00763819 322:0.0527008 323:0.187531 324:0.231693 325:0.345564 326:0.191992 327:0.0112351 328:0.0140031 329:0.0253705 330:0.00549114 331:0.00165089 332:0.00370154 333:0.0679372 334:0.345564 335:0.282998 336:0.0012691 337:0.00174048 338:0.00297448 339:0.0012218 341:0.00147223 342:0.0976155 343:0.345564 344:0.23488 345:0.018261 346:0.0387619 347:0.0914031 348:0.00615366 349:0.0378378 350:0.124865 351:0.159302 352:0.345564 353:0.345564 354:0.013555 355:0.02647 356:0.0317243 357:0.00163921 358:0.0166101 359:0.19486 360:0.345564 361:0.345827 362:0.218048 363:0.00115869 364:0.0015811 365:0.00278253 366:0.000873826 368:0.00120261 369:0.0730509 370:0.345827 371:0.266361 372:0.00012816 373:3.20162e-005 374:0.000826362 375:0.00101625 377:0.00201524 378:0.0929146 379:0.345827 380:0.294914 381:0.0122701 382:0.0240185 383:0.0292242 384:0.00131559 385:0.014883 386:0.157255 387:0.291917 388:0.345827 389:0.239481 390:0.000708718 391:0.000480244 392:0.000312441 393:0.000790415 395:0.100029 396:0.345827 397:0.367734 398:0.249173 399:0.000144237 400:6.93764e-005 401:0.000793458 402:0.00110851 404:0.0017838 405:0.0870952 406:0.367734 407:0.320317 408:0.00148037 410:0.00112084 411:7.3901e-005 412:0.000433821 413:0.00322897 414:0.0819936 415:0.367734 416:0.235397 417:0.00150493 418:0.00104065 419:0.000290839 420:0.000862178 422:0.100948 423:0.339947 424:0.367734 425:0.183492 426:0.000341624 428:0.00119559 429:5.74785e-005 430:0.000338997 431:0.0558174 432:0.241737 433:0.376983 434:0.337213 435:0.00141807 437:0.00125026 438:0.000180845 439:0.000223512 440:0.00273324 441:0.0878482 442:0.376983 443:0.340617 444:0.0393744 445:0.0568629 446:0.0806836 447:0.0490853 448:0.0195229 449:0.0362543 450:0.0970227 451:0.376983 452:0.199003 453:0.000327248 455:0.00118149 456:0.000140657 457:0.000312219 458:0.063604 459:0.269655 460:0.376983 461:0.170412 462:0.0149192 463:0.0154801 464:0.0110128 465:0.00158478 466:0.0010735 467:0.0283027 468:0.136767 469:0.258181 470:0.223463 471:0.129234 472:0.0604231 473:0.0561046 474:0.0486338 475:0.0666849 476:0.117165 477:0.224649 478:0.216668 479:0.214138 480:0.120223 481:0.0298734 482:0.0725178 483:0.0104704 484:0.179245 485:0.258181 486:0.258181 487:0.258181 488:0.131907 489:0.061438 490:0.0330301 491:0.0457059 492:0.0674824 493:0.110684 494:0.258181 495:0.258181 496:0.258181 497:0.258181 498:0.191603 499:0.00859989 500:0.0887851 501:0.03681 502:0.0905118 503:0.138545 504:0.243936 505:0.202881 506:0.183792 507:0.0940387 508:0.0187668 509:0.0427496 510:0.00554952 511:0.139155 512:0.254849 513:0.254849 514:0.104763 515:0.161162 516:0.138164 517:0.150173 518:0.254849 519:0.0613574 520:0.164519 521:0.235823 522:0.165881 523:0.254849 524:0.254849 525:0.150612 526:0.00622512 527:0.0526668 528:0.0185729 529:0.0665905 530:0.12544 531:0.22911 532:0.099436 533:0.210545 534:0.129059 535:0.0361466 536:0.254849 537:0.22176 538:0.204879 539:0.135689 540:0.172082 541:0.121721 542:0.192314 543:0.155085 544:0.153683 545:0.263545 546:0.0617149 547:0.191257 548:0.263545 549:0.208344 550:0.0975802 551:0.0706087 552:0.0899249 553:0.136481 554:0.263545 555:0.0627633 556:0.065592 557:0.0340208 558:0.0471354 559:0.129447 560:0.263545 561:0.157749 562:0.037031 563:0.263545 564:0.223644 565:0.218999 566:0.157024 567:0.194703 568:0.045943 569:0.0263767 570:0.0352427 571:0.0446886 572:0.263545 573:0.195361 574:0.142557 575:0.0922466 576:0.260623 577:0.165962 578:0.131057 579:0.163067 580:0.254875 581:0.322732 582:0.113138 583:0.1169 584:0.0747972 585:0.0884269 586:0.135061 587:0.0723621 588:0.0547388 589:0.0481837 590:0.0690103 591:0.0488346 592:0.140132 593:0.117422 594:0.0972983 595:0.0795894 596:0.0574068 597:0.0655305 598:0.0794092 599:0.322732 600:0.322732 601:0.259446 602:0.166708 603:0.322732 604:0.143992 605:0.130917 606:0.10524 607:0.0908111 608:0.116622 609:0.11765 610:0.0686565 611:0.127773 612:0.322732 613:0.0954927 614:0.046995 615:0.0412855 616:0.0396361 617:0.0640815 618:0.0356777 619:0.0932729 620:0.0650001 621:0.062877 622:0.319103 623:0.197294 624:0.053036 625:0.0386643 626:0.0350439 627:0.0271983 628:0.169608 629:0.319103 630:0.319103 631:0.091701 632:0.068625 633:0.0718464 634:0.0624604 635:0.0998305 636:0.0868438 637:0.0471614 638:0.0883756 639:0.281599 640:0.319103 641:0.319103 642:0.148762 643:0.06038 644:0.0566176 645:0.142646 646:0.106034 647:0.29228 648:0.319103 649:0.159538 650:0.0883773 651:0.0258477 652:0.0199751 653:0.0191879 654:0.0148179 655:0.0864192 656:0.216332 657:0.225644 658:0.336281 659:0.130251 660:0.0120918 661:0.00605373 662:0.00507742 663:0.00678777 664:0.0272077 665:0.216277 666:0.336281 667:0.272391 668:0.257927 669:0.0751605 670:0.0335656 671:0.0317988 672:0.0730263 673:0.0492495 674:0.131403 675:0.23773 676:0.336281 677:0.236246 678:0.0242708 679:0.00415492 680:0.00416271 681:0.0234878 682:0.0289427 683:0.227129 684:0.336281 685:0.339093 686:0.0934128 687:0.00921548 688:0.00475447 689:0.00445211 690:0.00477682 691:0.0221414 692:0.168769 693:0.339093 694:0.339093 695:0.125201 696:0.0033574 697:0.00128989 698:0.00319768 699:0.00690124 700:0.0052028 701:0.0359569 702:0.29677 703:0.339093 704:0.186738 705:0.0193537 706:0.00441724 707:0.00415291 708:0.0187112 709:0.0226913 710:0.157602 711:0.339093 712:0.227011 713:0.0220214 714:0.00366107 715:0.00154651 716:0.00235096 717:0.00801104 718:0.00920301 719:0.224825 720:0.339093 721:0.381062 722:0.128718 723:0.00358654 724:0.00145817 725:0.00333615 726:0.00731008 727:0.00515669 728:0.0461416 729:0.336075 730:0.381062 731:0.174307 732:0.00899731 733:0.0124519 734:0.0467761 735:0.00779887 736:0.0184555 737:0.033123 738:0.157719 739:0.255683 740:0.0303489 741:0.00401509 742:0.00162264 743:0.00241833 744:0.00808639 745:0.00915427 746:0.234766 747:0.381062 748:0.148658 749:0.0231093 750:0.00654067 751:0.014036 752:0.036024 753:0.0142051 754:0.0368856 755:0.277692 756:0.381062 757:0.358058 758:0.158159 759:0.00811622 760:0.00870552 761:0.0379058 762:0.00704559 763:0.0150849 764:0.0274326 765:0.153009 766:0.358058 767:0.307024 768:0.0212447 769:0.0440986 770:0.0953841 771:0.0059457 772:0.0407404 773:0.14592 774:0.186721 775:0.140413 776:0.0184339 777:0.00595841 778:0.0104531 779:0.0292012 780:0.0127226 781:0.031213 782:0.258009 783:0.358058 784:0.177834 785:0.0959447 786:0.0161509 787:0.0396034 788:0.0736011 789:0.0081144 790:0.062056 791:0.358058 792:0.358058 793:0.332582 794:0.203369 795:0.0144841 796:0.0289537 797:0.0682499 798:0.00461099 799:0.0281661 800:0.0932457 801:0.122911 802:0.332582 803:0.326948 804:0.0102377 805:0.0196921 806:0.0236411 807:0.00142871 808:0.0123224 809:0.148147 810:0.307268 811:0.120906 812:0.0618077 813:0.0108538 814:0.0263974 815:0.0526074 816:0.00631421 817:0.0434519 818:0.262714 819:0.332582 820:0.207873 821:0.101352 822:0.0081649 823:0.0163362 824:0.0182723 825:0.000442767 826:0.0189908 827:0.332582 828:0.332582 829:0.339527 830:0.26325 831:0.00955566 832:0.018423 833:0.0224546 834:0.00115656 835:0.0113783 836:0.123034 837:0.236149 838:0.339527 839:0.231553 840:0.000550325 841:0.000368274 842:0.000301731 843:0.000796366 845:0.0769627 846:0.277128 847:0.163938 848:0.0832856 849:0.00757038 850:0.0152993 851:0.0173275 852:0.000441176 853:0.0174836 854:0.314943 855:0.339527 856:0.175314 857:0.0445433 858:0.000407921 859:0.000286436 862:0.00428045 863:0.30207 864:0.339527 865:0.367777 866:0.24016 867:0.00123458 868:0.000849104 869:0.000299576 870:0.000924278 872:0.0831761 873:0.284064 874:0.367777 875:0.200159 876:0.000380089 878:0.00108946 879:6.16185e-005 880:0.000320481 881:0.037558 882:0.186972 883:0.180455 884:0.0491789 885:0.000940514 886:0.000660414 889:0.00411587 890:0.310596 891:0.367777 892:0.128686 893:0.0134527 896:0.000745199 897:0.000100492 898:0.00543157 899:0.292097 900:0.367777 901:0.374687 902:0.229011 903:0.000384384 905:0.00115023 906:0.000159191 907:0.000295156 908:0.0464856 909:0.221772 910:0.374687 911:0.191522 912:0.0162784 913:0.0176793 914:0.0159177 915:0.0035584 916:0.00122133 917:0.0156408 918:0.102791 919:0.152685 920:0.0175958 923:0.000667427 924:5.01378e-005 925:0.00606855 926:0.331056 927:0.374687 928:0.0779922 929:0.00278319 930:0.00123202 931:0.0038638 932:0.0337696 933:0.028352 934:0.0363318 935:0.374086 936:0.374687 937:0.260773 938:0.13132 939:0.0620586 940:0.0336175 941:0.0474272 942:0.069168 943:0.104627 944:0.264899 945:0.299185 946:0.297986 947:0.299185 948:0.186684 949:0.00909638 950:0.0756643 951:0.0326912 952:0.0908501 953:0.137134 954:0.222266 955:0.161225 956:0.0361869 957:0.00452582 958:0.00030752 959:0.00268155 960:0.00773641 961:0.0318842 962:0.299185 963:0.299185 964:0.15697 965:0.111077 966:0.0344405 967:7.09662e-005 968:0.0822829 969:0.0282355 970:0.0208776 971:0.299185 972:0.299185 973:0.272695 974:0.272695 975:0.157151 976:0.00706345 977:0.0482418 978:0.0176699 979:0.0717661 980:0.129529 981:0.22208 982:0.101253 983:0.216101 984:0.13528 985:0.0396174 986:0.272695 987:0.210829 988:0.210255 989:0.144091 990:0.162494 991:0.159054 992:0.101481 993:0.0289821 994:7.85929e-005 995:0.0542201 996:0.015183 997:0.0138877 998:0.272695 999:0.272695 1000:0.0458161 1001:0.0451264 1002:0.0208478 1003:0.00397986 1004:0.272695 1005:0.184667 1006:0.112293 1007:0.272695 1008:0.272695 1009:0.10839 1010:0.22763 1011:0.137061 1012:0.033736 1013:0.299162 1014:0.176434 1015:0.187191 1016:0.139821 1017:0.155872 1018:0.0373504 1019:0.0230887 1020:0.0315426 1021:0.0392216 1022:0.299162 1023:0.154943 1024:0.118024 1025:0.0658178 1026:0.159402 1027:0.0462892 1028:0.0489511 1029:0.0222133 1030:0.0033506 1031:0.299162 1032:0.154778 1033:0.0946609 1034:0.299162 1035:0.299162 1036:0.0827793 1037:0.00329573 1038:0.0015949 1039:0.00726965 1040:0.270307 1041:0.132317 1042:0.0858653 1043:0.227054 1044:0.299162 1045:0.0444975 1046:0.0340435 1047:0.0394317 1048:0.0471858 1049:0.407002 1050:0.19623 1051:0.144844 1052:0.0818141 1053:0.176685 1054:0.071602 1055:0.0656576 1056:0.0531607 1057:0.0457542 1058:0.0586753 1059:0.0586993 1060:0.0351927 1061:0.057187 1062:0.140972 1063:0.0845324 1064:0.00428294 1065:0.00210681 1066:0.0083299 1067:0.340644 1068:0.16895 1069:0.107905 1070:0.267196 1071:0.407002 1072:0.180566 1073:0.0430401 1074:0.0330863 1075:0.0273519 1076:0.0546652 1077:0.0622654 1078:0.0338215 1079:0.264331 1080:0.407002 1081:0.0466751 1082:0.0355063 1083:0.037606 1084:0.0326902 1085:0.0523893 1086:0.0449225 1087:0.0251384 1088:0.039389 1089:0.109809 1090:0.324347 1091:0.296296 1092:0.0738658 1093:0.0302279 1094:0.0288176 1095:0.0710547 1096:0.05268 1097:0.163102 1098:0.28411 1099:0.127644 1100:0.0237378 1101:0.0226479 1102:0.0187752 1103:0.04421 1104:0.0466409 1105:0.0237158 1106:0.197654 1107:0.391108 1108:0.314455 1109:0.182196 1110:0.0561856 1111:0.0213004 1112:0.0301253 1113:0.0857351 1114:0.0656525 1115:0.374381 1116:0.391108 1117:0.183853 1118:0.168698 1119:0.0474738 1120:0.0213243 1121:0.0204919 1122:0.0462581 1123:0.0311634 1124:0.0928628 1125:0.153435 1126:0.368369 1127:0.158037 1128:0.0156547 1129:0.00287748 1130:0.00314193 1131:0.0155693 1132:0.0185194 1133:0.155518 1134:0.377852 1135:0.187249 1136:0.104152 1137:0.0360003 1138:0.0151247 1139:0.0217563 1140:0.0557404 1141:0.0388079 1142:0.221008 1143:0.377852 1144:0.252415 1145:0.0894768 1146:0.010801 1147:0.00128751 1148:0.00130429 1149:0.014925 1150:0.0213347 1151:0.328108 1152:0.377852 1153:0.286551 1154:0.136345 1155:0.0136215 1156:0.00321942 1157:0.00327398 1158:0.0134631 1159:0.0158428 1160:0.119485 1161:0.383086 1162:0.192598 1163:0.0215001 1164:0.00324567 1165:0.00131833 1166:0.00204971 1167:0.00616421 1168:0.00551783 1169:0.152135 1170:0.383086 1171:0.200333 1172:0.0782138 1173:0.00960365 1174:0.00183601 1175:0.00201029 1176:0.0136598 1177:0.018624 1178:0.249727 1179:0.383086 1180:0.142668 1181:0.014666 1182:0.00503513 1183:0.014569 1184:0.017688 1185:0.0383634 1186:0.0374676 1187:0.315447 1188:0.383086 1189:0.211518 1190:0.0272079 1191:0.00349434 1192:0.00136546 1193:0.00208389 1194:0.00624865 1195:0.00540582 1196:0.156892 1197:0.393573 1198:0.122317 1199:0.0212195 1200:0.00533481 1201:0.011783 1202:0.0313444 1203:0.0082516 1204:0.0253582 1205:0.185645 1206:0.393573 1207:0.152685 1208:0.0171074 1209:0.00477196 1210:0.0136156 1211:0.0146555 1212:0.0349589 1213:0.0354922 1214:0.327019 1215:0.393573 1216:0.113364 1217:0.0158739 1218:0.0137199 1219:0.040656 1220:0.0741504 1221:0.109027 1222:0.0729027 1223:0.288882 1224:0.393573 1225:0.132593 1226:0.0198435 1227:0.0055522 1228:0.0099064 1229:0.0288568 1230:0.00846848 1231:0.0236557 1232:0.193803 1233:0.369886 1234:0.157477 1235:0.091272 1236:0.0152946 1237:0.0386412 1238:0.07321 1239:0.00594117 1240:0.0583388 1241:0.341501 1242:0.369886 1243:0.122862 1244:0.0180763 1245:0.0145128 1246:0.0428824 1247:0.0737595 1248:0.114218 1249:0.0807408 1250:0.319486 1251:0.369886 1252:0.102759 1253:0.00621747 1254:0.006491 1255:0.0173752 1256:0.0410176 1257:0.0430645 1258:0.0241687 1259:0.268378 1260:0.369886 1261:0.122196 1262:0.0672949 1263:0.0117241 1264:0.0294291 1265:0.0598661 1266:0.00528252 1267:0.0464321 1268:0.260792 1269:0.36346 1270:0.22317 1271:0.113352 1272:0.0091156 1273:0.0184359 1274:0.0208677 1275:0.00050289 1276:0.0208089 1277:0.36346 1278:0.36346 1279:0.0848724 1280:0.00593273 1281:0.005733 1282:0.0159335 1283:0.037131 1284:0.0396404 1285:0.0228793 1286:0.214803 1287:0.36346 1288:0.0877168 1289:0.00431519 1290:0.00115737 1291:0.000649568 1292:0.000648006 1293:6.69976e-006 1294:0.00393433 1295:0.335846 1296:0.36346 1297:0.170574 1298:0.0904513 1299:0.00824656 1300:0.0168432 1301:0.0192959 1302:0.000486322 1303:0.0186986 1304:0.311688 1305:0.374905 1306:0.195388 1307:0.0543086 1308:0.000455073 1309:0.000319128 1312:0.00367264 1313:0.278416 1314:0.374905 1315:0.0686149 1316:0.00334586 1317:0.000936433 1318:0.000698512 1319:0.000774125 1320:1.2063e-005 1321:0.00336209 1322:0.2575 1323:0.374905 1324:0.0925057 1325:0.00419731 1326:0.000298539 1328:0.000133557 1330:0.00553818 1331:0.316608 1332:0.374905 1333:0.173762 1334:0.0512458 1335:0.000911314 1336:0.000639075 1339:0.00306198 1340:0.250674 1341:0.392636 1342:0.127861 1343:0.0183547 1346:0.000626013 1347:7.12229e-005 1348:0.004202 1349:0.215336 1350:0.392636 1351:0.0792697 1352:0.00371298 1353:0.000294803 1355:0.000130019 1357:0.00456042 1358:0.276347 1359:0.392636 1360:0.0915122 1361:0.00301389 1364:0.00112256 1365:0.000308632 1366:0.00810215 1367:0.35993 1368:0.392636 1369:0.127642 1370:0.0196042 1373:0.000474731 1374:2.98888e-005 1375:0.00394047 1376:0.206562 1377:0.3803 1378:0.0608542 1379:0.00370746 1380:0.000384207 1381:0.00120493 1382:0.0176493 1383:0.0179892 1384:0.0233938 1385:0.230162 1386:0.3803 1387:0.0869121 1388:0.00323706 1391:0.000820771 1392:0.000129518 1393:0.00751786 1394:0.333351 1395:0.3803 1396:0.137441 1397:0.00375983 1398:0.0320716 1399:0.0291984 1400:0.108422 1401:0.051467 1402:0.0434713 1403:0.3803 1404:0.3803 
