<?xml version="1.0"?>
<opencv_storage>
<cascade>
  <stageType>BOOST</stageType>
  <featureType>LBP</featureType>
  <height>48</height>
  <width>18</width>
  <stageParams>
    <boostType>GAB</boostType>
    <minHitRate>9.9900001287460327e-001</minHitRate>
    <maxFalseAlarm>2.5000000000000000e-001</maxFalseAlarm>
    <weightTrimRate>9.4999999999999996e-001</weightTrimRate>
    <maxDepth>1</maxDepth>
    <maxWeakCount>100</maxWeakCount></stageParams>
  <featureParams>
    <maxCatCount>256</maxCatCount>
    <featSize>1</featSize></featureParams>
  <stageNum>10</stageNum>
  <stages>
    <!-- stage 0 -->
    <_>
      <maxWeakCount>2</maxWeakCount>
      <stageThreshold>-1.3689441606402397e-002</stageThreshold>
      <weakClassifiers>
        <_>
          <internalNodes>
            0 -1 18 -1 2142765055 -274 -2 -1 2013265919 -18 -1</internalNodes>
          <leafValues>
            -9.6703296899795532e-001 9.8309296369552612e-001</leafValues></_>
        <_>
          <internalNodes>
            0 -1 16 -205522057 -196095541 -775433449 -368381294
            -804666885 -528375669 -623670613 -855704577</internalNodes>
          <leafValues>
            -9.3898063898086548e-001 9.5334351062774658e-001</leafValues></_></weakClassifiers></_>
    <!-- stage 1 -->
    <_>
      <maxWeakCount>3</maxWeakCount>
      <stageThreshold>-9.5945656299591064e-001</stageThreshold>
      <weakClassifiers>
        <_>
          <internalNodes>
            0 -1 27 -4194354 -8920941 -1031 -1 -1064961 -1 -1 2142240767</internalNodes>
          <leafValues>
            -9.3060374259948730e-001 9.7294950485229492e-001</leafValues></_>
        <_>
          <internalNodes>
            0 -1 0 -538972177 -16308211 -780021365 -619200511
            -2121589297 -207486773 -133971825 -134773873</internalNodes>
          <leafValues>
            -8.6598020792007446e-001 9.3278199434280396e-001</leafValues></_>
        <_>
          <internalNodes>
            0 -1 12 -616708161 -241184751 387125420 -15230974 648194751
            1672186025 1259334047 -14341</internalNodes>
          <leafValues>
            -9.4849145412445068e-001 8.3712738752365112e-001</leafValues></_></weakClassifiers></_>
    <!-- stage 2 -->
    <_>
      <maxWeakCount>4</maxWeakCount>
      <stageThreshold>-5.4733566939830780e-002</stageThreshold>
      <weakClassifiers>
        <_>
          <internalNodes>
            0 -1 45 -3672203 -720124841 -3041 -276856593 -755499145
            -49307640 -267911169 -1368391809</internalNodes>
          <leafValues>
            -8.8121753931045532e-001 9.4284313917160034e-001</leafValues></_>
        <_>
          <internalNodes>
            0 -1 7 -992215297 1351725187 -788496033 1359073415
            -1182019414 -1165819773 -1560028662 -280009169</internalNodes>
          <leafValues>
            -7.9864650964736938e-001 9.0149664878845215e-001</leafValues></_>
        <_>
          <internalNodes>
            0 -1 31 -1179682 -213699 -1880150209 -1343312065 -147459
            -131075 -1077985345 -818966641</internalNodes>
          <leafValues>
            -7.0454281568527222e-001 9.1231614351272583e-001</leafValues></_>
        <_>
          <internalNodes>
            0 -1 8 -103285250 -653156107 -1878945509 -586084080
            1526988015 -1425858397 -1711159141 2144336779</internalNodes>
          <leafValues>
            -9.5199292898178101e-001 7.1281433105468750e-001</leafValues></_></weakClassifiers></_>
    <!-- stage 3 -->
    <_>
      <maxWeakCount>5</maxWeakCount>
      <stageThreshold>-7.0602309703826904e-001</stageThreshold>
      <weakClassifiers>
        <_>
          <internalNodes>
            0 -1 46 -285216769 -285213953 -42913 -1 -2051 -35455489
            1969223029 -524457</internalNodes>
          <leafValues>
            -7.9922777414321899e-001 9.1834247112274170e-001</leafValues></_>
        <_>
          <internalNodes>
            0 -1 29 -83886081 -1140854785 -1073758209 1073721343
            -268566531 -1 2147463165 -302019329</internalNodes>
          <leafValues>
            -5.7700347900390625e-001 9.2612767219543457e-001</leafValues></_>
        <_>
          <internalNodes>
            0 -1 50 2010642896 1434698183 339767970 889413787 -175970116
            -645193586 -1606182774 1073727231</internalNodes>
          <leafValues>
            -8.1304734945297241e-001 7.8491544723510742e-001</leafValues></_>
        <_>
          <internalNodes>
            0 -1 17 1200357239 -544226865 -1992229803 -520631905
            -757405989 -291535801 -22157857 1861742063</internalNodes>
          <leafValues>
            -7.9666256904602051e-001 7.2593533992767334e-001</leafValues></_>
        <_>
          <internalNodes>
            0 -1 28 -648830017 -78146285 -788430461 -2206417 -937706945
            -243264629 -360588577 -9581809</internalNodes>
          <leafValues>
            -8.2943397760391235e-001 6.8195527791976929e-001</leafValues></_></weakClassifiers></_>
    <!-- stage 4 -->
    <_>
      <maxWeakCount>7</maxWeakCount>
      <stageThreshold>-8.0915522575378418e-001</stageThreshold>
      <weakClassifiers>
        <_>
          <internalNodes>
            0 -1 19 -1 -3285009 -67126278 -1025 -1 2147483647 -134285569
            2147483647</internalNodes>
          <leafValues>
            -7.3125463724136353e-001 9.1806697845458984e-001</leafValues></_>
        <_>
          <internalNodes>
            0 -1 56 2147483647 1073741823 -2 1073676286 1325365500
            1979580415 2105538012 -33554438</internalNodes>
          <leafValues>
            -6.7697507143020630e-001 8.6739575862884521e-001</leafValues></_>
        <_>
          <internalNodes>
            0 -1 3 -203423778 -1747479075 -1961162324 -1078260589
            -130164513 -235804031 -1449658113 -537963900</internalNodes>
          <leafValues>
            -7.3072719573974609e-001 7.8614383935928345e-001</leafValues></_>
        <_>
          <internalNodes>
            0 -1 44 -209749185 -1754911716 -985356385 -113970929
            -1985267265 -1128019126 790572511 -16531701</internalNodes>
          <leafValues>
            -7.4968737363815308e-001 6.8656516075134277e-001</leafValues></_>
        <_>
          <internalNodes>
            0 -1 2 -957679890 -3442793 -637024257 -16264429 1234154159
            1535844801 -1048060213 1174402135</internalNodes>
          <leafValues>
            -7.8718328475952148e-001 5.6581765413284302e-001</leafValues></_>
        <_>
          <internalNodes>
            0 -1 41 -171443217 1998180411 568865789 -249308774
            -934294572 -894705005 -201674264 -67634522</internalNodes>
          <leafValues>
            -7.0579707622528076e-001 6.4665323495864868e-001</leafValues></_>
        <_>
          <internalNodes>
            0 -1 30 -167772297 -268501009 -137 -268435457 -137
            -268435457 -2057 -319815693</internalNodes>
          <leafValues>
            -6.4985287189483643e-001 6.9918847084045410e-001</leafValues></_></weakClassifiers></_>
    <!-- stage 5 -->
    <_>
      <maxWeakCount>7</maxWeakCount>
      <stageThreshold>-1.5110992193222046e+000</stageThreshold>
      <weakClassifiers>
        <_>
          <internalNodes>
            0 -1 1 -285212673 -285278209 393572863 -1 -318767105
            -268437333 -268478665 -268468361</internalNodes>
          <leafValues>
            -7.8974360227584839e-001 8.9123648405075073e-001</leafValues></_>
        <_>
          <internalNodes>
            0 -1 29 -67109377 -1140850689 -1 -1073790977 -537001987
            -1073741825 -268455939 -318783745</internalNodes>
          <leafValues>
            -5.6117045879364014e-001 9.0123981237411499e-001</leafValues></_>
        <_>
          <internalNodes>
            0 -1 39 -134746265 -1652127445 -931017249 -510573942
            -167261195 -223764293 -245974545 -495457329</internalNodes>
          <leafValues>
            -7.5726807117462158e-001 6.8821471929550171e-001</leafValues></_>
        <_>
          <internalNodes>
            0 -1 60 -537526273 -1476395009 1610612476 -1879048193
            2113885692 503316471 -33564676 -805306369</internalNodes>
          <leafValues>
            -5.9172260761260986e-001 7.6777380704879761e-001</leafValues></_>
        <_>
          <internalNodes>
            0 -1 10 -1 2138472307 -65793 2071396350 536838111 -814612625
            1879015422 -537919506</internalNodes>
          <leafValues>
            -5.6119084358215332e-001 8.1734961271286011e-001</leafValues></_>
        <_>
          <internalNodes>
            0 -1 55 -2102273 356704287 -788285502 -49098530 1004489469
            2074396693 -34649876 -548143246</internalNodes>
          <leafValues>
            -6.9014531373977661e-001 6.2641543149948120e-001</leafValues></_>
        <_>
          <internalNodes>
            0 -1 26 -205522450 -350159482 -41692926 -69146 -74869157
            1604959147 -205864777 -169674245</internalNodes>
          <leafValues>
            -6.8632125854492188e-001 5.5302655696868896e-001</leafValues></_></weakClassifiers></_>
    <!-- stage 6 -->
    <_>
      <maxWeakCount>8</maxWeakCount>
      <stageThreshold>-5.0019145011901855e-001</stageThreshold>
      <weakClassifiers>
        <_>
          <internalNodes>
            0 -1 15 -2185 -1048593 -2185 -17825793 -1 -286261249 -1
            -386924545</internalNodes>
          <leafValues>
            -5.6892931461334229e-001 9.0608352422714233e-001</leafValues></_>
        <_>
          <internalNodes>
            0 -1 22 -1048577 -131073 -1074819105 -20513 -135233 -147539
            -1065025 -806359153</internalNodes>
          <leafValues>
            -4.3366387486457825e-001 9.3529164791107178e-001</leafValues></_>
        <_>
          <internalNodes>
            0 -1 6 -53281538 -582958078 71406423 -578299565 -268203845
            -653541376 1528237739 2101297979</internalNodes>
          <leafValues>
            -7.6736640930175781e-001 6.7257648706436157e-001</leafValues></_>
        <_>
          <internalNodes>
            0 -1 53 -856801265 -644672161 -1022719613 -652512181
            -917777985 -41320247 -849151845 -234717393</internalNodes>
          <leafValues>
            -7.5123107433319092e-001 5.5777436494827271e-001</leafValues></_>
        <_>
          <internalNodes>
            0 -1 23 1474493436 1025561057 1435771784 528078223
            1913182718 2038988859 -1454823362 2057103887</internalNodes>
          <leafValues>
            -7.6329129934310913e-001 5.3464674949645996e-001</leafValues></_>
        <_>
          <internalNodes>
            0 -1 14 1071644607 -1075937066 -1073524130 492495034
            1111968171 1494995075 -939272036 -603981334</internalNodes>
          <leafValues>
            -6.3109517097473145e-001 5.9352046251296997e-001</leafValues></_>
        <_>
          <internalNodes>
            0 -1 52 1820058287 -778053417 1347480030 -170218154
            -372251796 -90313144 -1966218004 -722076</internalNodes>
          <leafValues>
            -7.6194149255752563e-001 5.0177657604217529e-001</leafValues></_>
        <_>
          <internalNodes>
            0 -1 40 -169749012 924028939 -1073387106 1527214175
            -1719097203 -1400340085 -508845920 2080111559</internalNodes>
          <leafValues>
            -9.1795003414154053e-001 3.5947018861770630e-001</leafValues></_></weakClassifiers></_>
    <!-- stage 7 -->
    <_>
      <maxWeakCount>8</maxWeakCount>
      <stageThreshold>-1.2964693307876587e+000</stageThreshold>
      <weakClassifiers>
        <_>
          <internalNodes>
            0 -1 21 -603979777 738177023 -1610612737 -1073741825 -3
            -1610612737 -939524100 -301990145</internalNodes>
          <leafValues>
            -4.7678795456886292e-001 9.1828989982604980e-001</leafValues></_>
        <_>
          <internalNodes>
            0 -1 49 -285229330 -1 -16777217 -1 -1 -137 -1627390593
            1971320183</internalNodes>
          <leafValues>
            -4.7045719623565674e-001 8.2663172483444214e-001</leafValues></_>
        <_>
          <internalNodes>
            0 -1 48 -111183873 -610082425 67109017 -1144913462
            1086931693 -2004858655 -1048056097 -346141089</internalNodes>
          <leafValues>
            -6.8280559778213501e-001 6.6791200637817383e-001</leafValues></_>
        <_>
          <internalNodes>
            0 -1 5 -1638992930 -1684721645 286382519 -1717206701
            -796163660 -1710653306 -1978152295 453856203</internalNodes>
          <leafValues>
            -6.2068802118301392e-001 6.5579891204833984e-001</leafValues></_>
        <_>
          <internalNodes>
            0 -1 54 -40895602 1250346251 1615952514 719165447 -980762362
            1242202523 -1565869850 -151258129</internalNodes>
          <leafValues>
            -8.1899261474609375e-001 5.2210044860839844e-001</leafValues></_>
        <_>
          <internalNodes>
            0 -1 38 1143978927 1586501965 8591431 -179613022 1889239946
            -1350319857 -199909111 1441264450</internalNodes>
          <leafValues>
            -7.1088141202926636e-001 5.3306031227111816e-001</leafValues></_>
        <_>
          <internalNodes>
            0 -1 4 -1877773901 -153680941 -1761390135 -598732527
            -2146741741 -234184183 -1291769777 -78659262</internalNodes>
          <leafValues>
            -7.5795972347259521e-001 4.8145490884780884e-001</leafValues></_>
        <_>
          <internalNodes>
            0 -1 9 1716254687 -987749798 1666830594 -570052443
            1073784095 -884801526 1648377872 -724579105</internalNodes>
          <leafValues>
            -7.3348236083984375e-001 4.2606496810913086e-001</leafValues></_></weakClassifiers></_>
    <!-- stage 8 -->
    <_>
      <maxWeakCount>9</maxWeakCount>
      <stageThreshold>-7.2549504041671753e-001</stageThreshold>
      <weakClassifiers>
        <_>
          <internalNodes>
            0 -1 36 -285409316 -1073791489 -268451841 -1073758209
            -1073741827 -16777217 -268484865 -1359011841</internalNodes>
          <leafValues>
            -5.5521935224533081e-001 8.8456833362579346e-001</leafValues></_>
        <_>
          <internalNodes>
            0 -1 13 335927281 -1073793156 2130700095 -1792789710
            230950349 -41943041 -605552705 -303528672</internalNodes>
          <leafValues>
            -4.1391140222549438e-001 9.0801548957824707e-001</leafValues></_>
        <_>
          <internalNodes>
            0 -1 47 -69474453 1287848131 805584930 1619480650 554000695
            557522984 -205799321 1627119599</internalNodes>
          <leafValues>
            -7.4863654375076294e-001 6.4882194995880127e-001</leafValues></_>
        <_>
          <internalNodes>
            0 -1 43 -327819 -4538370 -16513 -4784257 -1073774597 -1
            2138914811 -272629889</internalNodes>
          <leafValues>
            -6.3061833381652832e-001 7.0522350072860718e-001</leafValues></_>
        <_>
          <internalNodes>
            0 -1 57 531626459 922747009 1409417359 -981315577
            -1463207253 -99956728 353046168 -641733192</internalNodes>
          <leafValues>
            -7.3199188709259033e-001 5.4015368223190308e-001</leafValues></_>
        <_>
          <internalNodes>
            0 -1 58 -175129089 76747163 -1811795008 1645997787 566856747
            1485522947 -1173911481 -1320158513</internalNodes>
          <leafValues>
            -6.4381939172744751e-001 5.8323514461517334e-001</leafValues></_>
        <_>
          <internalNodes>
            0 -1 25 -22282770 -347929274 -1827626496 -276508634
            -1064614897 579063882 -793132541 -408161881</internalNodes>
          <leafValues>
            -7.1068489551544189e-001 5.0721198320388794e-001</leafValues></_>
        <_>
          <internalNodes>
            0 -1 42 -381952753 -402587069 -2113826589 -509625905
            -939351989 1082237999 1239665659 1684527946</internalNodes>
          <leafValues>
            -6.8449997901916504e-001 5.4449194669723511e-001</leafValues></_>
        <_>
          <internalNodes>
            0 -1 37 1800924139 -651082985 1275314206 2146828800 16996748
            -274661239 -929365749 1455932290</internalNodes>
          <leafValues>
            -6.7751508951187134e-001 5.4715794324874878e-001</leafValues></_></weakClassifiers></_>
    <!-- stage 9 -->
    <_>
      <maxWeakCount>9</maxWeakCount>
      <stageThreshold>-7.9178553819656372e-001</stageThreshold>
      <weakClassifiers>
        <_>
          <internalNodes>
            0 -1 20 -16849 -752877649 -16455 -1048641 -33554625
            -42090577 -36710465 -185729105</internalNodes>
          <leafValues>
            -7.2118961811065674e-001 8.6372268199920654e-001</leafValues></_>
        <_>
          <internalNodes>
            0 -1 35 -536944929 967835513 -65540 -1644183681 -671121415
            1056866287 -587211624 -84939013</internalNodes>
          <leafValues>
            -4.9342566728591919e-001 8.2967180013656616e-001</leafValues></_>
        <_>
          <internalNodes>
            0 -1 32 -17834370 2130558077 -1077985282 -1073790993
            800899006 -197139 -1077985313 -277959377</internalNodes>
          <leafValues>
            -5.8787006139755249e-001 6.8317925930023193e-001</leafValues></_>
        <_>
          <internalNodes>
            0 -1 33 -1994588705 -146751434 -711356009 -210612160
            1644315359 -1453833856 -805072193 -134219021</internalNodes>
          <leafValues>
            -5.9706485271453857e-001 6.7058920860290527e-001</leafValues></_>
        <_>
          <internalNodes>
            0 -1 24 -531115217 -146702176 1912877715 1121003924
            -805251054 167772160 16812177 1104908939</internalNodes>
          <leafValues>
            -7.7138406038284302e-001 5.1785892248153687e-001</leafValues></_>
        <_>
          <internalNodes>
            0 -1 11 -708062821 2102546591 -2012673865 -1223507698
            134963395 -1442479741 -2012672862 -9710748</internalNodes>
          <leafValues>
            -6.2440919876098633e-001 5.6942558288574219e-001</leafValues></_>
        <_>
          <internalNodes>
            0 -1 51 -397327036 -78294925 -1677197170 960462856
            -930342674 1904771850 -422565636 -524031101</internalNodes>
          <leafValues>
            -7.4650758504867554e-001 5.5826896429061890e-001</leafValues></_>
        <_>
          <internalNodes>
            0 -1 59 -1506806785 805770117 1090568259 -1131692029
            295672201 -129855453 -939284420 -909385537</internalNodes>
          <leafValues>
            -6.0903578996658325e-001 6.4347344636917114e-001</leafValues></_>
        <_>
          <internalNodes>
            0 -1 34 -73670866 -1395359513 1879347584 -153530299
            -1038374434 1133363843 -232529392 2012740595</internalNodes>
          <leafValues>
            -7.3240494728088379e-001 5.1562130451202393e-001</leafValues></_></weakClassifiers></_></stages>
  <features>
    <_>
      <rect>
        0 0 6 8</rect></_>
    <_>
      <rect>
        0 1 4 9</rect></_>
    <_>
      <rect>
        0 2 2 8</rect></_>
    <_>
      <rect>
        0 5 6 3</rect></_>
    <_>
      <rect>
        0 10 3 8</rect></_>
    <_>
      <rect>
        1 0 5 4</rect></_>
    <_>
      <rect>
        1 5 2 11</rect></_>
    <_>
      <rect>
        1 7 3 7</rect></_>
    <_>
      <rect>
        1 8 5 10</rect></_>
    <_>
      <rect>
        1 12 1 4</rect></_>
    <_>
      <rect>
        1 17 1 6</rect></_>
    <_>
      <rect>
        1 19 1 5</rect></_>
    <_>
      <rect>
        1 24 5 6</rect></_>
    <_>
      <rect>
        1 45 4 1</rect></_>
    <_>
      <rect>
        2 18 1 5</rect></_>
    <_>
      <rect>
        2 20 2 7</rect></_>
    <_>
      <rect>
        2 21 2 6</rect></_>
    <_>
      <rect>
        2 23 2 5</rect></_>
    <_>
      <rect>
        2 23 5 6</rect></_>
    <_>
      <rect>
        2 27 5 7</rect></_>
    <_>
      <rect>
        3 0 5 6</rect></_>
    <_>
      <rect>
        3 4 2 4</rect></_>
    <_>
      <rect>
        3 4 4 4</rect></_>
    <_>
      <rect>
        3 4 5 3</rect></_>
    <_>
      <rect>
        3 13 2 4</rect></_>
    <_>
      <rect>
        3 18 1 2</rect></_>
    <_>
      <rect>
        3 21 1 1</rect></_>
    <_>
      <rect>
        4 0 4 13</rect></_>
    <_>
      <rect>
        4 2 4 6</rect></_>
    <_>
      <rect>
        4 4 2 4</rect></_>
    <_>
      <rect>
        4 23 1 4</rect></_>
    <_>
      <rect>
        5 4 3 4</rect></_>
    <_>
      <rect>
        5 6 3 3</rect></_>
    <_>
      <rect>
        5 23 2 3</rect></_>
    <_>
      <rect>
        6 30 1 2</rect></_>
    <_>
      <rect>
        6 42 4 2</rect></_>
    <_>
      <rect>
        7 4 1 4</rect></_>
    <_>
      <rect>
        7 23 1 4</rect></_>
    <_>
      <rect>
        7 25 1 4</rect></_>
    <_>
      <rect>
        8 7 3 7</rect></_>
    <_>
      <rect>
        8 20 2 5</rect></_>
    <_>
      <rect>
        8 23 2 4</rect></_>
    <_>
      <rect>
        8 29 1 2</rect></_>
    <_>
      <rect>
        9 3 2 4</rect></_>
    <_>
      <rect>
        9 4 2 4</rect></_>
    <_>
      <rect>
        9 5 3 7</rect></_>
    <_>
      <rect>
        9 11 3 11</rect></_>
    <_>
      <rect>
        9 30 1 2</rect></_>
    <_>
      <rect>
        10 1 2 6</rect></_>
    <_>
      <rect>
        11 21 2 7</rect></_>
    <_>
      <rect>
        12 8 2 9</rect></_>
    <_>
      <rect>
        12 14 1 2</rect></_>
    <_>
      <rect>
        12 24 1 2</rect></_>
    <_>
      <rect>
        13 3 1 7</rect></_>
    <_>
      <rect>
        13 17 1 2</rect></_>
    <_>
      <rect>
        13 21 1 3</rect></_>
    <_>
      <rect>
        14 18 1 5</rect></_>
    <_>
      <rect>
        14 18 1 7</rect></_>
    <_>
      <rect>
        15 15 1 3</rect></_>
    <_>
      <rect>
        15 16 1 7</rect></_>
    <_>
      <rect>
        15 17 1 5</rect></_></features></cascade>
</opencv_storage>
